tree
version=v2
num_class=1
num_tree_per_iteration=1
label_index=0
max_feature_idx=28
objective=binary sigmoid:1
feature_names=Latitude Q18 dist_1 Q5 Q4 mean_landowners_around dist_2 Q12|Q14_disc_Latitude Q12|Q14 mobile_money_for_bills mean_mobile_money_around Q14|Q16 Q7|Q16 Q8_2 mean_money_received_around Q1 mean_money_sources_around Q19 Q7 Q8_10 Q2 Q8_4 Q12 Q12|Q14_disc_mobile_money_usage Q8_8 money_sending_intensity Q17 dist_0 Q12|Q14_disc_Longitude
feature_infos=[-11.46746306:-1.08399964] [1:5] [0.081203954833317424:8.5390329582390105] [1:6] [1:8] [0:1] [0.076109413552059912:10.176947314084256] [0.178496361124833:1.9522060155303154] [0:3] [0:1] [1:5] [0:9] [0:9] [0:1] [0:1] [16:100] [1:2.5555555555555554] [1:5] [1:2] [0:1] [1:2] [0:1] [1:2] [0.34514668241779878:7.9825715225254843] [0:1] [0.16666666666666666:6] [-1:5] [0.1833412187249388:7.6596143590167785] [0.83220365156832488:1.1456089649764842]
tree_sizes=1597 1640 1643 1668 1662 1650 1650 1659 1659 1655 1652 1653 1651 1646 1643 1676 1658 1660 1647 1665 1666 1660 1658 1665 1674 1683 1651 1651 1662 1649 1667 1658 1654 1654 1668 1654 1659 1664 1682 1653 1658 1650 1662 1665 1664 1659 1662 1667 1657 1663 1667 1656 1659 1666 1660 1666 1680 1661 1659 1658 1668 1680 1668 1660 1663 1672 1670 1651 1673 1666 1672 1678 1662 1671 1660 1670 1676 1688 1669 1667 1666 1668 1682 1662 1659 1669 1669 1662 1674 1657 1676 1670 1674 1664 1662 1674 1677 1674 1687 1670 1669 1672 1665 1675 1665 1676 1675 1679 1665 1680 1674 1683 1670 1659 1662 1680 1686 1666 1672 1672 1671 1677 1669 1674 1669 1683 1677 1682 1675 1682 1678 1670 1686 1680 1679 1680 1677 1671 1684 1678 1670 1685 1678 1674 1677 1670 1689 1680 1675 1682 1671 1679 1666 1675 1684 1671 1674 1674 1679 1680 1681 1665 1688 1676 1681 1682 1678 1685 1684 1684 1680 1680 1684 1690 1679 1685 1689 1666 1690 1677 1677 1696 1687 1679 1680 1687 1688 1688 1677 1675 1677 1677 1689 1685 1676 1674 1691 1681 1679 1680 1679 1684 1686 1677 1672 1672 1667 1685 1688 1679 1685 1675 1682 1677 1678 1684 1675 1672 1691 1677 1678 1678 1686 1670 1667 1673 1673 1669 1682 1665 1689 1678 1673 1680 1677 1679 1694 1681 1699 1668 1679 1674 1680 1690 1685 1681 1693 1670 1671 1680 1680 1679 1683 1682 1691 1680 1682 1664 1666 1682 1682 1685 1677 1681 1676 1682 1696 1678 1679 1668 1688 1694 1678 1685 1679 1683 1673 1685 1683 1681 1675 1677 1688 1688 1684 1682 1668 1680 1682 1679 1709 1671 1704 1680 1684 1678 1681 1697 1684 1681 1678 1673 1672 1668 1685 1685 1669 1696 1674 1664 1695 1679 1674 1669 1684 1680 1674 1677 1681 1673 1681 1683 1678 1677 1673 1678 1677 1682 1683 1688 1694 1684 1672 1667 1687 1688 1663 1689 1680 1706 1699 1690 1679 1694 1668 1681 1676 1669 1681 1681 1671 1675 1686 1678 1681 1677 1694 1686 1683 1683 1683 1691 1695 1683 1675 1680 1677 1685 1687 1667 1673 1690 1698 1681 1685 1684 1674 1682 1673 1670 1674 1677 1668 1690 1684 1670 1664 1682 1666 1693 1679 1686 1679 1687 1700 1692 1685 1675 1688 1676 1678 1668 1680 1680 1663 1684 1686 1679 1680 1692 1683 1687 1676 1679 1673 1677 1684 1682 1677 1674 1686 1689 1675 1688 1681 1677 1688 1673 1678 1679 1697 1667 1678 1668 1692 1675 1680 1669 1683 1672 1674 1684 1686 1679 1679 1695 1676 1666 1681 1674 1670 1693 1679 1675 1661 1683 1683 1688 1677 1663 1676 1689 1680 1678 1687 1671 1676 1678 1686 1681 1662 1674 1690 1681 1699 1676 1686 1683 1684 1674 1692 1696 1670 1685 1678 1675 1676 1692 1694 1689 1686 1679 1679 1683 1676 1681 1692 1671 1679 1682 1671 1687 1679 1687 1695 1688 1674 1702 1679 1667 1673 1677 1689 1667 1690 1677 1677 1692 1691 1673 1684 1670 1679 1689 1694 1693 1675 1694 1685 1684 1679 1687 1683 1671 1681 1668 1690 1687 1681 1677 1686 1679 1677 1677 1671 1675 1691 1677 1666 1678 1675 1687 1682 1679 1675 1687 1680 1690 1676 1675 1697 1680 1684 1679 1682 1683 1672 1673 1671 1678 1683 1677 1678 1672 1678 1675 1681 1675 1671 1673 1677 1672 1668 1675 1679 1684 1669 1683 1672 1674 1679 1674 1670 1668 1681 1669 1667 1683 1677 1679 1669 1674 1683 1671 1680 1677 1682 1664 1705 1662 1682 1665 1676 1665 1677 1669 1682 1671 1648 1685 1679 1677 1689 1673 1677 1679 1681 1690 1670 1667 1667 1662 1671 1673 1675 1669 1677 1671 1687 1660 1665 1669 1676 1667 1679 1677 1680 1674 1679 1675 1699 1678 1689 1683 1686 1675 1671 1690 1691 1676 1660 1676 1668 1682 1682 1675 1674 1683 1673 1680 1671 1673 1686 1671 1692 1681 1673 1671 1669 1682 1676 1675 1689 1669 1670 1681 1681 1679 1666 1667 1671 1686 1686 1672 1670 1654 1664 1663 1677 1679 1677 1664 1693 1676 1686 1660 1679 1687 1684 1685 1665 1660 1667 1663 1666 1685 1671 1667 1674 1673 1681 1662 1688 1676 1684 1692 1664 1665 1692 1696 1673 1671 1685 1694 1674 1669 1687 1673 1684 1689 1676 1690 1666 1666 1654 1674 1690 1676 1677 1670 1670 1678 1681 1666 1693 1682 1669 1683 1682 1678 1677 1685 1681 1667 1668 1671 1676 1674 1656 1675 1680 1681 1683 1657 1684 1666 1667 1685 1675 1661 1676 1668 1677 1675 1678 1677 1677 1679 1669 1678 1668 1669 1673 1679 1667 1681 1680 1671 1668 1669 1678 1670 1672 1680 1678 1667 1675 1673 1672 1664 1680 1696 1676 1671 1679 1669 1677 1679 1678 1676 1698 1661 1679 1692 1668 1680 1661 1678 1677 1674 1673 1665 1677 1666 1670 1682 1679 1693 1686 1667 1673 1670 1662 1678 1680 1661 1669 1677 1677 1684 1663 1673 1692 1672 1680 1674 1653 1665 1676 1686 1668 1674 1668 1679 1677 1668 1681 1670 1666 1684 1668 1679 1658 1702 1680 1678 1682 1670 1692 1682 1686 1672 1687 1675 1684 1667 1677 1707 1665 1683 1676 1688 1672 1675 1663 1696 1676 1670 1685 1678 1664 1672 1668 1693 1663 1673 1668 1674 1674 1683 1673 1673 1664 1682 1678 1677 1672 1667 1667 1686 1678 1670 1680 1680 1681 1666 1682 1669 1677 1691 1670 1687 1661 1686 1677 1663 1681 1666 1676 1689 1675 1689 1681 1669 1678 1665 1663 1674 1683 1690 1683 1674 1664 1666 1685 1657 1676 1669 1649 1684 1665 1677 1680 1682 1680 1673 1676 1662 1673 1677 1675 1685 1668 1666 1668 1682 1681 1682 1663 1678 1676 1674 1667 1680 1675 1684 1674 1673 1679 1668 1686 1674 1671 1657 1675 1668 1674 1684 1676 1674

Tree=0
num_leaves=20
num_cat=0
split_feature=8 11 18 18 14 11 17 2 4 2 5 4 4 14 27 5 4 2 0
split_gain=3459.85 591.36 83.8337 37.2687 29.3352 19.5768 18.5332 15.0086 10.2533 5.68749 4.55169 3.9723 3.89315 3.69342 3.43574 8.23359 3.32519 2.67964 3.02531
threshold=1.0000000180025095e-35 1.5000000000000002 1.5000000000000002 1.5000000000000002 0.45131365113759486 3.5000000000000004 2.5000000000000004 5.2423019717457366 1.5000000000000002 6.7733573052932012 0.07362240289069559 2.5000000000000004 2.5000000000000004 0.21583850931677021 4.225988875004119 0.16585760517799356 2.5000000000000004 1.2871560460608253 -6.4217858249999988
decision_type=2 2 2 2 2 2 2 2 2 2 2 2 2 2 2 2 2 2 2
left_child=1 2 4 -2 7 14 -6 17 -9 10 -10 -8 -4 -12 15 -5 -16 -1 -19
right_child=3 -3 12 5 6 -7 11 8 9 -11 13 -13 -14 -15 16 -17 -18 18 -20
leaf_value=0.20321161718284758 0.23400863610963571 0.23240042554998488 0.19527139599917515 0.21895360056692492 0.22109282835901825 0.23453953110747491 0.20300654358776229 0.19717255338275019 0.20337513991879791 0.20219982025415478 0.20658719366067979 0.20961274105625882 0.19717898463607098 0.21309963262234524 0.22406076601651709 0.22896644809502756 0.22916713508914843 0.20223414172392049 0.19744744074059778
leaf_count=55 2300 231 864 84 50 129 61 58 54 88 63 93 868 80 90 55 121 67 264
internal_value=0 -1.52797 -1.79562 1.61431 -1.30947 1.1038 -0.635127 -1.49817 -1.19195 -1.03504 -0.8451 -0.980638 -2.0575 -0.657186 0.856891 0.611314 1.01867 -1.77028 -1.8386
internal_count=5675 2896 2665 2779 933 479 204 729 343 285 197 154 1732 143 350 139 211 386 331
shrinkage=1


Tree=1
num_leaves=20
num_cat=0
split_feature=11 22 1 14 23 22 17 5 20 5 0 0 0 0 14 1 10 10 5
split_gain=3298.97 692.079 30.8724 20.3923 17.9185 12.8023 8.30163 7.6868 6.70483 4.93542 7.04425 6.83309 3.87349 3.62397 3.56208 3.41019 3.98314 3.11612 2.32348
threshold=1.0000000180025095e-35 1.5000000000000002 1.5000000000000002 0.43924689440993797 0.62425255016073589 1.5000000000000002 2.5000000000000004 0.19890109890109894 1.5000000000000002 0.098387096774193564 -8.4431224649999983 -3.2822274349999998 -4.830804755 -4.8816678949999988 0.27092233009708744 3.5000000000000004 1.2426470588235297 1.3798076923076925 0.14229471316085493
decision_type=2 2 2 2 2 2 2 2 2 2 2 2 2 2 2 2 2 2 2
left_child=1 14 3 8 5 -2 7 -5 9 13 -11 -12 15 -3 -1 -7 -17 -4 -14
right_child=4 2 17 6 -6 12 -8 -9 -10 10 11 -13 18 -15 -16 16 -18 -19 -20
leaf_value=0.010886595106871179 0.017064470962237489 -0.020627804165864679 -0.020861883942157756 -0.01169228935908655 0.017332902816314732 0.012191121084996844 -0.014026490735246351 -0.0017024022212048266 -0.018709992955071832 -0.0089418477983124727 -0.017737521686695089 -0.0092955302755636446 0.016202301231005179 -0.014700972643014652 0.015630781258217857 0.0046650129651262242 0.012052310594704555 -0.018645987311139412 0.01214522998806509
leaf_count=92 332 103 861 80 1738 261 256 51 602 82 172 50 117 70 212 64 55 365 112
internal_value=0 -1.46079 -1.78489 -1.58803 1.6121 1.38833 -1.19209 -0.780333 -1.72997 -1.55197 -1.39772 -1.58365 1.21495 -1.82297 1.41949 1.09031 0.807895 -2.02022 1.4218
internal_count=5675 2996 2692 1466 2679 941 387 131 1079 477 304 222 609 173 304 380 119 1226 229
shrinkage=0.01


Tree=2
num_leaves=20
num_cat=0
split_feature=8 12 12 12 23 4 27 27 5 0 7 0 5 0 7 4 27 7 4
split_gain=3351.6 427.257 129.005 81.3321 77.7437 15.7685 12.5648 21.8345 8.56377 8.25239 7.14584 7.57464 7.61142 6.28864 6.89657 4.28949 3.49718 7.50696 2.79396
threshold=1.0000000180025095e-35 2.5000000000000004 1.0000000180025095e-35 1.0000000180025095e-35 2.3138091993505712 1.5000000000000002 6.1439121548662259 5.9383549480782465 0.29705882352941182 -4.830804755 1.5717874443343594 -4.4557506899999995 0.13484848484848486 -3.1987533599999995 0.75316081682303526 2.5000000000000004 4.4154349386208773 1.0660752125667095 2.5000000000000004
decision_type=2 2 2 2 2 2 2 2 2 2 2 2 2 2 2 2 2 2 2
left_child=1 2 18 10 5 -4 7 8 13 -8 11 12 -2 14 -7 -13 17 -16 -1
right_child=3 -3 4 -5 -6 6 9 -9 -10 -11 -12 15 -14 -15 16 -17 -18 -19 -20
leaf_value=-0.021108768527196276 -0.0013062171183971238 0.015265248280644267 -0.018376559106498339 0.017120927180839643 0.012505748252686764 -0.018167125440950865 -0.017558994770857688 0.001007595830528102 -0.0055780614443369817 -0.0098140356009642545 0.012644363962567696 0.0043558964299766573 0.0083056077126918721 -0.0059410733192945984 -0.019593265659575702 0.012037067983391691 -0.0070572151312373165 -0.010329622159656181 -0.019499866571364387
leaf_count=895 97 177 157 2440 53 94 172 68 88 82 62 51 51 50 50 70 51 120 847
internal_value=0 -1.5088 -1.70439 1.58482 -1.12315 -1.25736 -1.13972 -0.961092 -1.12038 -1.50601 0.647982 0.505898 0.200382 -1.256 -1.36104 0.879833 -1.16715 -1.30556 -2.03267
internal_count=5675 2904 2727 2771 985 932 775 521 453 254 331 269 148 365 315 121 221 170 1742
shrinkage=0.01


Tree=3
num_leaves=20
num_cat=0
split_feature=12 23 12 23 23 9 23 1 14 14 2 21 2 17 0 0 2 4 14
split_gain=1957.36 506.631 289.25 476.225 529.394 104.648 63.8495 21.9631 22.7825 20.7656 11.6244 8.07152 6.55734 6.05488 6.31604 5.41952 4.9231 3.6436 3.59694
threshold=1.0000000180025095e-35 0.74427525854407317 2.5000000000000004 0.74427525854407317 0.81798299140073738 1.0000000180025095e-35 1.4885505170881463 3.5000000000000004 0.29004765395894433 0.39827586206896559 5.2131834853845502 1.0000000180025095e-35 6.6124913737068391 2.5000000000000004 -4.6146592399999991 -6.8480507499999996 3.8246928200793273 2.5000000000000004 0.38653084323712511
decision_type=2 2 2 2 2 2 2 2 2 2 2 2 2 2 2 2 2 2 2
left_child=1 11 3 -2 7 -6 -7 8 10 -8 -5 16 -12 -10 15 -15 -1 -3 -19
right_child=2 17 -4 4 5 6 9 -9 13 -11 12 -13 -14 14 -16 -17 -18 18 -20
leaf_value=0.000894977853308037 0.016202892224714553 -0.020641451802690169 0.017141409775470916 -0.019306613754934698 0.017017287904825297 0.014089219983651306 -0.015237879144184847 -0.017845907650743426 -0.0025635839933255793 0.00093037108235677552 -0.0071536557948768112 0.012080438189239859 -0.016134661958723415 -0.0094036760138938788 -0.013575450955486212 -0.00097604074315693547 0.0075208557310792717 -0.019704532521278351 -0.016904612464966561
leaf_count=67 945 896 1200 129 440 80 79 254 91 54 79 113 56 80 72 50 142 576 272
internal_value=0 -1.54963 0.904148 0.502328 -0.214773 1.13869 -0.0180378 -1.29558 -1.07237 -0.868623 -1.49995 0.774172 -1.08801 -0.686694 -0.880403 -0.616128 0.539589 -1.97496 -1.88067
internal_count=5675 2066 3609 2409 1464 653 213 811 557 133 264 322 135 293 202 130 209 1744 848
shrinkage=0.01


Tree=4
num_leaves=20
num_cat=0
split_feature=11 18 28 4 18 28 27 3 27 11 28 4 27 27 27 28 21 10 5
split_gain=3081.04 267.501 47.5109 33.5212 30.8503 24.3207 15.0339 12.8932 12.2108 12.1486 9.61156 8.30481 7.46812 12.2972 7.43996 10.3831 7.32778 6.66792 6.10578
threshold=1.0000000180025095e-35 1.5000000000000002 1.1144772458010526 5.5000000000000009 1.5000000000000002 1.0205224806382118 5.9340694590349701 2.5000000000000004 2.8828751289363748 3.5000000000000004 1.1308413693062276 2.5000000000000004 6.4309206849174947 6.1629812208391739 5.1439540371698955 0.93879139611271001 1.0000000180025095e-35 1.1702898550724641 0.1924501424501425
decision_type=2 2 2 2 2 2 2 2 2 2 2 2 2 2 2 2 2 2 2
left_child=1 2 3 5 -2 7 17 8 -1 16 12 -10 13 -4 -9 -16 -6 -7 -8
right_child=4 -3 10 -5 9 6 18 14 11 -11 -12 -13 -14 -15 15 -17 -18 -19 -20
leaf_value=-0.0047340799858622716 0.016752246686872346 -0.01873112633764586 -0.0061561491415994471 0.0091912108629471859 0.0061630075358770197 -0.010644178365130623 0.00050510876412324427 -0.0073337624461418749 -0.017908232663397004 0.015598084452247618 -0.0216001171314739 -0.009774971834948628 -0.0057546810990202445 -0.018171087331089842 0.0040498735426085838 -0.0077041013912301564 0.012890975576373614 -0.00084890426956752752 0.0094381782415146175
leaf_count=107 2259 1810 51 70 189 50 62 151 85 149 52 125 57 105 75 51 101 64 62
internal_value=0 -1.3911 -0.64031 -0.420185 1.57989 -0.532313 0.0112124 -0.749556 -1.02609 1.09058 -1.38712 -1.30726 -1.19811 -1.42499 -0.432715 -0.071885 0.850496 -0.515375 0.496609
internal_count=5675 2977 1167 902 2698 832 238 594 317 439 265 210 213 156 277 126 290 114 124
shrinkage=0.01


Tree=5
num_leaves=20
num_cat=0
split_feature=8 11 12 12 14 17 28 16 4 28 0 27 28 27 28 4 28 0 0
split_gain=3211.18 508.129 83.0508 65.0888 33.0283 28.4473 9.91546 9.80446 8.99353 6.96586 9.20625 6.39092 7.2237 3.65666 3.37659 2.92663 2.79936 5.02762 2.39138
threshold=1.0000000180025095e-35 1.5000000000000002 1.5000000000000002 1.0000000180025095e-35 0.43924689440993797 2.5000000000000004 1.1160483318979926 1.2110323886639678 1.5000000000000002 1.0572730415007703 -8.3521573299999989 5.0122248015819837 0.94267648252028313 4.3445943032935048 0.98006436652370144 2.5000000000000004 1.1028761998407941 -6.4217858249999988 -2.8018959549999995
decision_type=2 2 2 2 2 2 2 2 2 2 2 2 2 2 2 2 2 2 2
left_child=1 2 18 7 6 -6 8 -2 -4 10 -10 -12 -13 -9 -15 -7 -5 -18 -1
right_child=3 -3 4 16 5 15 -8 13 9 -11 11 12 -14 14 -16 -17 17 -19 -20
leaf_value=-0.01994549839469972 0.0016147846259075391 0.014820045159240593 -0.019035390709419821 0.016944598064833404 0.0046560499183194229 -0.013676240313992245 -0.01845234590415068 0.0064088689278631508 -0.0065674437082196158 -0.005258082349442258 -0.017671320041968096 -0.0074926224164786181 -0.016377207793153457 0.015015923953584706 0.0086445083427964618 -0.0083322164375168404 0.016712390849162366 0.0106890935966265 -0.017677005083527625
leaf_count=1554 93 220 84 2170 72 66 189 100 74 56 135 79 69 61 76 110 170 85 212
internal_value=0 -1.47525 -1.71199 1.55592 -1.22797 -0.599764 -1.45451 0.716117 -1.30573 -1.18394 -1.28708 -1.45171 -1.16369 0.933885 1.14799 -1.03387 1.6709 1.47049 -1.96732
internal_count=5675 2920 2700 2755 934 248 686 330 497 413 357 283 148 237 137 176 2425 255 1766
shrinkage=0.01


Tree=6
num_leaves=20
num_cat=0
split_feature=8 11 12 12 15 14 1 2 15 2 14 3 15 15 1 23 28 14 2
split_gain=3120.11 486.742 77.0257 76.601 27.5998 25.5459 17.4652 16.8156 11.3002 6.14102 5.13991 4.1385 3.77443 3.27407 3.09125 2.05482 2.51343 2.01096 4.53534
threshold=1.0000000180025095e-35 1.5000000000000002 1.5000000000000002 1.0000000180025095e-35 67.500000000000014 0.43095238095238103 1.5000000000000002 5.2131834853845502 26.500000000000004 1.299796683810954 0.31100018318373329 2.5000000000000004 46.500000000000007 36.500000000000007 1.5000000000000002 0.62425255016073589 1.1028761998407941 0.38653084323712511 5.4845509791639548
decision_type=2 2 2 2 2 2 2 2 2 2 2 2 2 2 2 2 2 2 2
left_child=1 2 14 4 10 7 11 9 -9 -4 -2 -7 -10 -12 17 16 -5 -1 -19
right_child=3 -3 5 15 -6 6 -8 8 12 -11 13 -13 -14 -15 -16 -17 -18 18 -20
leaf_value=-0.019092294893286114 0.0045374803489197108 0.014668411871021721 -0.01154080038489389 0.016226327665392091 -0.0074684719745918915 -0.0059757017255427022 -0.014967873760912092 -0.0049368685874095469 -0.011291535772881637 -0.018359712429133635 0.012501120462363827 0.00035052902893881996 -0.016601354699825436 0.0072413302704388786 -0.02008288514845229 0.017065816683552205 0.012804462628934216 -0.019048204443554987 -0.013846555896126864
leaf_count=569 83 217 65 785 50 86 68 94 153 289 126 81 83 78 914 1552 99 173 110
internal_value=0 -1.45197 -1.68297 1.53657 0.635632 -1.21193 -0.640753 -1.40762 -1.08187 -1.71087 0.876669 -0.290923 -1.31597 1.04899 -1.92742 1.66217 1.58429 -1.84062 -1.70264
internal_count=5675 2902 2685 2773 337 919 235 684 330 354 287 167 236 204 1766 2436 884 852 283
shrinkage=0.01


Tree=7
num_leaves=20
num_cat=0
split_feature=11 12 12 4 28 28 15 0 17 28 5 15 4 14 28 0 14 17 15
split_gain=2911.73 235.96 55.7729 48.3705 35.2227 24.9054 20.4115 20.31 12.8301 10.2542 8.83724 7.25328 6.72606 7.523 6.33016 8.72055 5.78103 4.89932 4.4841
threshold=1.0000000180025095e-35 1.5000000000000002 1.0000000180025095e-35 2.5000000000000004 1.1144772458010526 1.0288420409715813 60.500000000000007 -6.4217858249999988 3.5000000000000004 1.1134438779284814 0.10154639175257733 41.500000000000007 2.5000000000000004 0.34384236453201977 0.94862404153874647 -4.5426354399999989 0.24764150943396229 3.5000000000000004 35.500000000000007
decision_type=2 2 2 2 2 2 2 2 2 2 2 2 2 2 2 2 2 2 2
left_child=1 12 6 9 5 8 -2 -6 -5 11 -7 16 -1 -14 -10 -16 -3 -12 -15
right_child=2 3 -4 4 7 10 -8 -9 14 -11 17 -13 13 18 15 -17 -18 -19 -20
leaf_value=-0.019209389735992677 0.0095600003067415323 -0.01178183233285203 0.016337888172360822 0.001612835524382698 -0.002939444369517086 -0.0013265982778610736 -0.0039636338459777092 -0.017439328879048293 -0.0031491698378110166 -0.018059832908265717 0.012914444621972561 -0.013670673510744961 -0.018161042818767206 -0.012720028920836332 -0.0045178729832993708 -0.014101352227402622 -0.0038633896523150675 0.0046616709923770917 -0.017835288050015146
leaf_count=934 209 66 2438 123 64 58 58 99 150 92 52 140 566 220 83 71 85 67 100
internal_value=0 -1.35473 1.53704 -0.641618 -0.349905 -0.125413 0.661436 -1.17637 -0.387706 -1.22333 0.510602 -1.03847 -1.80244 -1.67742 -0.608805 -0.894649 -0.733054 0.82576 -1.4319
internal_count=5675 2970 2705 1150 767 604 267 163 427 383 177 291 1820 886 304 154 151 119 320
shrinkage=0.01


Tree=8
num_leaves=20
num_cat=0
split_feature=18 23 23 23 23 9 28 26 15 23 28 6 7 10 15 10 7 28 10
split_gain=1451.79 386.796 369.312 227.964 891.486 95.7362 89.7477 30.0838 23.1483 9.60266 9.38107 15.373 9.42044 9.04359 7.93873 4.83569 4.62316 4.27318 4.03241
threshold=1.5000000000000002 0.74427525854407317 0.81798299140073738 0.74427525854407317 0.81798299140073738 1.0000000180025095e-35 1.1127610042037082 1.0000000180025095e-35 66.500000000000014 1.4885505170881463 1.1160483318979926 4.8896131228259572 0.63488949051075216 1.4641025641025642 46.500000000000007 1.3317152103559873 1.1132528114704228 0.95807348462833941 1.0923295454545456
decision_type=2 2 2 2 2 2 2 2 2 2 2 2 2 2 2 2 2 2 2
left_child=3 8 -3 -1 10 -6 9 -4 18 -7 11 12 13 17 15 -13 -12 -5 -2
right_child=1 2 7 4 5 6 -8 -9 -10 -11 16 14 -14 -15 -16 -17 -18 -19 -20
leaf_value=0.015848748091174619 0.0042533778999579944 -0.018897006772784133 0.016100613778101232 -0.011050427672474437 0.016673994628367446 0.015774540557330491 -0.014144160775579079 -0.00041619989827150288 -0.0057452605264677135 0.0065013758296456493 -0.019456111407424388 -0.0012442602904542451 -0.01714932727778164 -0.0047396697313784918 -0.012580531852028058 -0.0081938079328763343 -0.012865192152116699 -0.017702199332219958 0.010165246651609824
leaf_count=1147 58 1700 129 113 1205 93 82 69 50 90 89 87 160 69 69 75 82 59 249
internal_value=0 -1.23415 -1.59158 0.846145 0.476891 1.42319 0.325838 1.02798 0.696711 1.11887 -1.21385 -1.10107 -1.3382 -1.08777 -0.688944 -0.446146 -1.62986 -1.33341 0.904715
internal_count=5675 2255 1898 3420 2273 1470 265 198 357 183 803 632 401 241 231 162 171 172 307
shrinkage=0.01


Tree=9
num_leaves=20
num_cat=0
split_feature=11 23 23 15 1 23 2 5 7 0 23 15 2 23 0 5 16 15 16
split_gain=2841.35 487.199 66.8349 25.4669 22.187 14.8021 8.19477 8.54958 10.1744 13.4327 7.60585 7.5255 12.2181 6.86883 4.36081 4.13917 3.91826 3.64483 3.16359
threshold=1.0000000180025095e-35 0.74427525854407317 0.81798299140073738 67.500000000000014 1.5000000000000002 0.62425255016073589 1.2455055388582861 0.087548969511156552 0.57919170524526498 -8.3521573299999989 0.62425255016073589 43.500000000000007 1.7317056389274483 0.4885330753801686 -5.0539246999999987 0.27614379084967328 1.3667502088554724 35.500000000000007 1.1246118012422361
decision_type=2 2 2 2 2 2 2 2 2 2 2 2 2 2 2 2 2 2 2
left_child=1 18 4 10 6 -5 -3 -8 15 17 13 12 -4 -2 -15 16 -9 -10 -1
right_child=3 2 11 5 -6 -7 7 8 9 -11 -12 -13 -14 14 -16 -17 -18 -19 -20
leaf_value=0.008420584657575194 0.016470308587925718 -0.0080730607354835456 -0.0094421061265967509 0.00022479476264906985 -0.018784824149848871 0.014548032987787934 -0.017688608917529255 -0.0060947732493004869 -0.0097168295835033825 -0.017722822367961577 0.016446144652700827 -0.0099226973583605299 0.0032002245785542355 0.011253517436106955 0.014916807739445493 -0.014847980644367249 -0.01282379275322783 -0.014590476806742397 0.014077906635919641
leaf_count=50 324 65 51 71 1163 51 424 94 143 400 1701 72 78 328 226 59 55 108 212
internal_value=0 -1.33811 -1.58749 1.52213 -1.67606 0.617558 -1.50121 -1.53632 -1.42148 -1.54459 1.56518 -0.472409 -0.181704 1.4118 1.27471 -1.03584 -0.858054 -1.18141 1.29974
internal_count=5675 2974 2712 2701 2511 122 1348 1283 859 651 2579 201 129 878 554 208 149 251 262
shrinkage=0.01


Tree=10
num_leaves=20
num_cat=0
split_feature=8 12 23 12 12 15 4 7 7 3 15 6 7 6 10 6 6 6 15
split_gain=2852.79 362.942 132.176 72.0553 70.0762 20.0956 15.9744 11.5005 10.5991 6.71324 6.55062 7.22764 4.96793 4.60305 4.33932 4.21531 3.79981 6.20727 3.18938
threshold=1.0000000180025095e-35 2.5000000000000004 2.3138091993505712 1.0000000180025095e-35 1.5000000000000002 67.500000000000014 1.5000000000000002 1.0660752125667095 0.56463170001037344 1.5000000000000002 47.500000000000007 8.7932531655189674 0.84856385834658499 6.9842539650688229 1.2752525252525253 5.7270639950668416 6.8071757963650752 4.9315896897248921 38.500000000000007
decision_type=2 2 2 2 2 2 2 2 2 2 2 2 2 2 2 2 2 2 2
left_child=1 2 4 5 18 12 -6 8 9 -8 11 15 -2 14 -14 -9 17 -10 -1
right_child=3 -3 -4 -5 6 -7 7 10 16 -11 -12 -13 13 -15 -16 -17 -18 -19 -20
leaf_value=-0.017754319758439066 0.011201822398881962 0.014941521062185171 0.013795446441552313 0.016097137385423628 -0.017253403664409635 -0.0056549673108554693 -0.012906274747699533 -0.0069420496190412476 -0.015255310551367023 -0.0047651293469552925 -0.012624191671759677 -0.011120181264472038 -0.00055265188708256748 0.010933997813439386 0.007440133163820398 0.00032911511850593613 -0.018300928138634417 -0.0083701221061463112 -0.019474042416076802
leaf_count=958 126 172 62 2455 167 50 69 53 170 99 61 56 54 50 57 81 74 76 785
internal_value=0 -1.37578 -1.55189 1.48776 -1.61853 0.612292 -1.16652 -1.03997 -1.21906 -0.811317 -0.691282 -0.507751 0.819062 0.584027 0.354804 -0.25485 -1.4327 -1.31294 -1.85289
internal_count=5675 2883 2711 2792 2649 337 906 739 488 168 251 190 287 161 111 134 320 246 1743
shrinkage=0.01


Tree=11
num_leaves=20
num_cat=0
split_feature=8 23 18 23 18 23 16 1 16 15 3 16 3 20 10 10 10 10 10
split_gain=2811.13 350.535 53.2231 42.3588 40.0581 27.1928 23.2406 17.9648 17.0443 15.2093 7.74879 5.49441 5.29452 5.00762 4.25306 6.31056 3.14048 2.61784 2.28142
threshold=1.0000000180025095e-35 1.4885505170881463 1.5000000000000002 2.3138091993505712 1.5000000000000002 0.62425255016073589 1.1808376362593231 1.5000000000000002 1.1474939088061262 64.500000000000014 3.5000000000000004 1.2705377147124721 2.5000000000000004 1.5000000000000002 1.3268132495716736 1.1291666666666669 1.5519230769230772 1.2649122807017545 1.2240143369175629
decision_type=2 2 2 2 2 2 2 2 2 2 2 2 2 2 2 2 2 2 2
left_child=1 2 7 6 18 9 8 13 -3 11 -9 -6 -8 14 15 -1 -15 -13 -2
right_child=4 3 -4 -5 5 -7 12 10 -10 -11 -12 17 -14 16 -16 -17 -18 -19 -20
leaf_value=-0.0091882580063818824 0.014704745274139846 -5.1474844407838555e-05 -0.018483978483084466 0.013662036739194446 0.0045237125218568538 0.016086793666526711 0.00063496215369652153 -0.01800235315030815 -0.015075014635772712 -0.0040520557514989921 -0.0098463819821376607 0.0080136876183959146 0.008422452782827182 -0.013603945917689202 -0.011542983059047078 -0.0013558659743472207 -0.0087314295528081037 0.013072095550392921 0.01624184977991117
leaf_count=113 519 67 1684 128 111 175 64 223 56 50 59 92 81 171 97 65 77 77 1766
internal_value=0 -1.37088 -1.64633 0.4003 1.47386 0.957601 -0.0532047 -1.22274 -0.694278 0.617616 -1.62968 0.80187 0.497711 -1.00292 -0.816825 -0.633015 -1.20929 1.03176 1.58924
internal_count=5675 2885 2489 396 2790 505 268 805 123 330 282 280 145 523 275 178 248 169 2285
shrinkage=0.01


Tree=12
num_leaves=20
num_cat=0
split_feature=8 11 18 18 15 10 11 28 17 5 7 28 7 15 7 28 28 7 7
split_gain=2809.13 433.015 72.8796 37.5139 26.5142 12.1656 10.4936 9.11869 11.2119 9.15205 5.58231 5.90312 5.47862 5.05483 6.60412 7.85443 2.92176 3.43908 2.31131
threshold=1.0000000180025095e-35 1.5000000000000002 1.5000000000000002 1.5000000000000002 67.500000000000014 2.1065126050420173 3.5000000000000004 1.1127610042037082 2.5000000000000004 0.16585760517799356 0.85002374788298163 0.99156966205211849 1.1206317565300841 33.500000000000007 1.2238313289121991 0.96364397088232467 1.1028761998407941 1.1265331952161002 0.45598482959252079
decision_type=2 2 2 2 2 2 2 2 2 2 2 2 2 2 2 2 2 2 2
left_child=1 2 5 16 6 7 10 8 9 -1 -5 -12 -9 14 15 -10 -2 -18 -4
right_child=3 -3 18 4 -6 -7 -8 12 13 -11 11 -13 -14 -15 -16 -17 17 -19 -20
leaf_value=-0.010199796199759577 0.016146031816170612 0.013874753259092024 -0.016310944631612128 0.012633638132324708 -0.0022912325956911278 -0.0020797948570209861 0.016300876735851601 -0.017555256542736476 -0.0078954393698357408 0.0011493096421882696 0.0019742261883244918 0.0098900957510257188 -0.011171632353171113 -0.01361685352907605 -0.0040051089823904479 -0.016736743939052546 0.010574366259712472 0.015504818561961436 -0.018554083119814775
leaf_count=62 2045 220 209 126 65 54 134 150 93 53 61 105 84 295 61 71 88 178 1521
internal_value=0 -1.36663 -1.58634 1.47891 0.970085 -1.13186 1.15551 -1.18905 -1.06446 -0.497731 0.941398 0.697758 -1.52661 -1.18938 -0.963316 -1.17237 1.5884 1.38723 -1.82831
internal_count=5675 2873 2653 2802 491 923 426 869 635 115 292 166 234 520 225 164 2311 266 1730
shrinkage=0.01


Tree=13
num_leaves=20
num_cat=0
split_feature=8 11 1 11 8 10 0 27 0 11 28 0 1 21 10 10 28 27 10
split_gain=2733.27 435.073 25.5529 11.7046 13.609 7.18075 5.73215 10.453 6.64505 5.72295 6.16382 9.12203 5.23434 4.59444 4.33024 4.24672 3.80678 3.62011 4.30597
threshold=1.0000000180025095e-35 1.5000000000000002 1.5000000000000002 3.5000000000000004 1.5000000000000002 2.1656862745098042 -2.9526581849999993 5.9205043572843765 -8.3521573299999989 2.5000000000000004 1.1006087972952794 -6.8971849749999992 1.5000000000000002 1.0000000180025095e-35 1.1062030075187972 1.6640758738748691 0.99808588792839525 4.4154349386208773 1.2649122807017545
decision_type=2 2 2 2 2 2 2 2 2 2 2 2 2 2 2 2 2 2 2
left_child=1 2 5 4 -2 6 8 -8 -1 14 12 -12 17 16 -6 -4 -14 18 -11
right_child=3 -3 15 -5 9 -7 7 -9 -10 10 11 -13 13 -15 -16 -17 -18 -19 -20
leaf_value=-0.012458108642731655 0.016115594018648684 0.013996478482565957 -0.018244766987718566 0.016405250823097257 0.0097058566891443862 -0.0064200545093754989 -0.0040998106110671437 -0.014027482703908143 -0.015657770328427009 0.0078162928284919928 0.012685427066954061 0.0004323442208289617 0.0099081526785328305 0.01350210320923345 0.014912099488876437 -0.014514972288787531 0.0024294389579444216 0.014899024249790916 0.014267452059362067
leaf_count=377 613 223 1066 1006 79 50 61 140 837 87 50 51 64 62 403 138 50 233 85
internal_value=0 -1.34582 -1.56587 1.4639 1.36452 -1.38832 -1.41462 -1.10158 -1.46644 1.23541 1.11528 0.650449 1.19604 0.903569 1.40539 -1.78174 0.661937 1.32397 1.09979
internal_count=5675 2892 2669 2783 1777 1465 1415 201 1214 1164 682 101 581 176 482 1204 114 405 172
shrinkage=0.01


Tree=14
num_leaves=20
num_cat=0
split_feature=8 11 1 14 23 23 25 16 6 27 6 16 16 16 6 1 27 27 27
split_gain=2669.48 394.972 28.372 27.671 17.4892 14.3673 10.2867 6.3541 6.09474 5.17722 10.6375 4.63504 3.8462 3.19586 2.77559 2.70578 2.50658 4.56546 2.45676
threshold=1.0000000180025095e-35 1.5000000000000002 1.5000000000000002 0.43924689440993797 0.62425255016073589 1.4885505170881463 1.8333333333333337 1.1540659340659343 5.3436512311370539 5.4728129975251099 1.2047755751091593 1.1246118012422361 1.552777777777778 1.214835164835165 5.2063820232882962 3.5000000000000004 5.8306806837537239 6.0595867598404647 3.4897498346924398
decision_type=2 2 2 2 2 2 8 2 2 2 2 2 2 2 2 2 2 2 2
left_child=1 2 3 9 6 12 -2 8 -8 14 -11 -12 13 -5 -1 -9 -4 -18 -15
right_child=4 -3 16 5 -6 -7 7 15 -10 10 11 -13 -14 18 -16 -17 17 -19 -20
leaf_value=-0.017200416781877226 0.01603246485475978 0.013593293753027577 -0.018076987621038793 -0.011859647653565014 0.016008854606623477 0.0011982017306459893 0.012018239568451007 0.013229798058358326 0.0044555530398768181 -0.0054375607648736073 -0.010755595142103702 -0.015725953509325576 -0.013943713352307907 -0.0035456612844770104 -0.014487796396457508 0.010343262344198101 -0.011580779385674079 -0.01723147592098816 -0.0089708397403820053
leaf_count=391 295 214 865 95 1580 51 87 525 90 59 99 311 84 50 246 181 72 279 101
internal_value=0 -1.32025 -1.5232 -1.33778 1.45959 -0.872299 1.27171 1.16199 0.816857 -1.49786 -1.33834 -1.45259 -1.02469 -0.898389 -1.61531 1.24864 -1.74984 -1.60725 -0.71739
internal_count=5675 2917 2703 1487 2758 381 1178 883 177 1106 469 410 330 246 637 706 1216 351 151
shrinkage=0.01


Tree=15
num_leaves=20
num_cat=0
split_feature=11 12 28 12 4 4 2 7 0 10 0 7 28 21 0 4 21 0 10
split_gain=2536.39 211.362 41.1101 39.3214 28.7515 18.5666 18.5975 9.46035 8.70004 7.82448 7.24396 6.67634 6.44765 5.01387 4.56769 4.56304 4.1197 4.07715 3.51173
threshold=1.0000000180025095e-35 1.5000000000000002 1.1144772458010526 1.0000000180025095e-35 5.5000000000000009 1.5000000000000002 1.8359782130935307 1.3052472867503748 -3.4459654549999996 1.4342857142857144 -6.6797511749999989 0.75777077129506731 0.94446762994281763 1.0000000180025095e-35 -4.4826658699999991 2.5000000000000004 1.0000000180025095e-35 -6.3006714099999988 1.2649122807017545
decision_type=2 2 2 2 2 2 2 2 2 2 2 2 2 2 2 2 2 2 2
left_child=1 15 4 13 5 -3 -7 8 11 12 18 -8 -10 14 -2 -1 -9 -13 -4
right_child=3 2 10 -5 -6 6 7 16 9 -11 -12 17 -14 -15 -16 -17 -18 -19 -20
leaf_value=-0.017788610977608803 0.0024481772631636269 -0.011519185137090701 -0.012575100734853526 0.015426352198982585 0.0087142185924857524 0.0054369639027005206 -0.012470430536286842 -0.0033012631636843703 -0.0020019162198947559 0.0018283970206157997 -0.016065833190520965 -0.0097718961014858306 -0.010781917885986566 0.010979668179972648 0.0093253820402984453 -0.015782662227151988 0.0029542678635584262 -0.0022614300295517964 -0.0053358108899918587
leaf_count=924 105 141 57 2437 69 83 113 107 70 76 140 53 65 90 64 894 71 65 51
internal_value=0 -1.25511 -0.584361 1.46099 -0.386394 -0.487678 -0.353852 -0.473042 -0.630281 -0.334987 -1.30653 -0.899262 -0.624385 0.709892 0.50438 -1.68021 -0.0809888 -0.564355 -0.916297
internal_count=5675 2979 1161 2696 913 844 703 620 442 211 248 231 135 259 169 1818 178 118 108
shrinkage=0.01


Tree=16
num_leaves=20
num_cat=0
split_feature=8 23 23 28 15 17 23 20 15 0 5 8 20 0 28 28 0 20 28
split_gain=2617.79 272.635 50.6926 36.2185 24.2873 11.4048 10.1276 7.82852 6.23667 5.86387 5.98496 5.01149 4.39223 4.2515 5.17929 5.79657 4.79449 4.60717 3.79381
threshold=1.0000000180025095e-35 1.4885505170881463 2.3138091993505712 1.1127610042037082 71.500000000000014 2.5000000000000004 0.62425255016073589 1.5000000000000002 49.500000000000007 -3.3987777349999999 0.27130750605326881 1.5000000000000002 1.5000000000000002 -8.3521573299999989 1.0814291072625755 1.1108207013093909 -2.9526581849999993 1.5000000000000002 0.93641616515387238
decision_type=2 2 2 2 2 2 2 2 2 2 2 2 2 2 2 2 2 2 2
left_child=1 5 3 7 6 9 11 -3 13 10 12 -2 -1 17 16 -16 -15 -7 -18
right_child=4 2 -4 -5 -6 8 -8 -9 -10 -11 -12 -13 -14 14 15 -17 18 -19 -20
leaf_value=-0.012498617445926698 0.015481099120076398 0.0090086170657881545 0.013523869821488567 -0.011807943437588722 0.0025322092663914155 -0.010367944434138276 0.015858628669505062 -1.055390034995818e-05 -0.017709517141726933 -0.0077648921817480435 -0.0074119032111402685 0.012475761988877006 -0.017811760494795575 -0.017302287763503208 -0.0076545311990980575 -0.015468671047138461 -0.011082706040912717 -0.015144094766772656 -0.016326406436309976
leaf_count=136 326 67 125 99 69 126 1554 98 648 87 51 825 115 734 59 107 101 226 122
internal_value=0 -1.31111 0.273739 -0.224373 1.44632 -1.54955 1.47723 0.362346 -1.60728 -1.2345 -1.36634 1.332 -1.49331 -1.53538 -1.59554 -1.26918 -1.65214 -1.34347 -1.39517
internal_count=5675 2901 389 264 2774 2512 2705 165 2123 389 302 1151 251 1475 1123 166 957 352 223
shrinkage=0.01


Tree=17
num_leaves=20
num_cat=0
split_feature=11 23 12 12 14 23 15 12 4 0 5 28 28 4 20 0 3 16 3
split_gain=2462.1 394.531 95.5257 48.6444 35.7462 17.3075 16.7821 15.196 11.4543 11.0002 8.44062 7.10984 7.35205 6.87705 6.73333 5.2843 3.85343 3.57107 3.52232
threshold=1.0000000180025095e-35 0.74427525854407317 1.5000000000000002 1.0000000180025095e-35 0.43924689440993797 0.81798299140073738 59.500000000000007 1.5000000000000002 1.5000000000000002 -6.5241219499999996 0.07362240289069559 1.1160483318979926 1.0159223793575356 2.5000000000000004 1.5000000000000002 -3.8099234249999996 1.5000000000000002 1.361818181818182 1.5000000000000002
decision_type=2 2 2 2 2 2 2 2 2 2 2 2 2 2 2 2 2 2 2
left_child=1 7 -3 6 8 13 17 -1 -4 10 -10 12 15 -6 -12 -11 -17 -2 -15
right_child=3 2 4 -5 5 -7 -8 -9 9 11 14 -13 -14 18 -16 16 -18 -19 -20
leaf_value=0.0033604445802059347 0.0057892048946784312 -0.017336074440135182 -0.017507914353354595 0.015281570625229137 -0.011388582426210377 0.0068970684639308825 -0.0033133388268967627 0.015000685481963283 -0.013050466704504994 -0.015956638345512617 0.0012392720741599022 -0.016684849267912923 -0.0039628623656558313 -0.0068927095995773638 -0.0082129559823550663 -0.013874908122845133 -0.0072820101260268047 0.011362680817975892 -0.00043303818426652918
leaf_count=61 86 1791 118 2423 61 56 61 189 54 95 60 115 52 61 61 59 89 107 76
internal_value=0 -1.24532 -1.46079 1.43719 -0.949832 -0.304495 0.591714 1.21119 -1.18205 -1.06724 -0.646675 -1.24645 -1.08183 -0.580293 -0.352692 -1.2275 -0.991114 0.887633 -0.331127
internal_count=5675 2998 2748 2677 957 254 254 250 703 585 175 410 295 198 121 243 148 193 137
shrinkage=0.01


Tree=18
num_leaves=20
num_cat=0
split_feature=8 11 1 14 11 8 5 14 2 2 28 28 2 5 5 5 17 14 1
split_gain=2487.46 391.457 27.7211 22.7729 10.2748 10.2646 4.85945 4.71206 4.6359 6.93432 7.52133 4.28775 5.17227 4.24105 4.1715 4.21534 3.98032 3.96241 3.17141
threshold=1.0000000180025095e-35 1.5000000000000002 1.5000000000000002 0.44281045751633991 3.5000000000000004 2.5000000000000004 0.11035007610350077 0.12771739130434787 1.2648579510539759 5.0585324727946626 0.912461704698868 1.1006087972952794 1.7610822779094486 0.20882543802725503 0.09232954545454547 0.12250000000000001 3.5000000000000004 0.55480480480480499 3.5000000000000004
decision_type=2 2 2 2 2 2 2 2 2 2 2 2 2 2 2 2 2 2 2
left_child=1 2 3 8 5 7 17 -2 -1 -10 13 -7 -13 -11 -12 -16 -8 -5 -9
right_child=4 -3 -4 6 -6 11 16 18 9 10 14 12 -14 -15 15 -17 -18 -19 -20
leaf_value=-0.0084977201546660979 0.0084817448566687822 0.013526074344662782 -0.017133602592967999 -0.01558857092072769 0.015827132205134809 0.012098608967400299 -0.0038395271039155399 0.015273944539488573 -0.016518925817734554 -0.017876812491450362 -0.014720308771871382 0.0028345725046408925 0.011505565843233144 -0.011427699616711737 -0.0053651391255857394 -0.011494485483495447 -0.0090525696123088598 -0.0079864597451372692 0.011131909016224677
leaf_count=50 50 222 1188 61 1005 660 93 883 477 159 110 50 69 55 59 189 160 50 85
internal_value=0 -1.27738 -1.486 -1.30156 1.41514 1.32237 -0.867329 1.45854 -1.44525 -1.47364 -1.32502 1.1452 0.786561 -1.62193 -1.14755 -1.00365 -0.713951 -1.21646 1.49063
internal_count=5675 2873 2651 1463 2802 1797 364 1018 1099 1049 572 779 119 214 358 248 253 111 968
shrinkage=0.01


Tree=19
num_leaves=20
num_cat=0
split_feature=8 12 23 12 12 14 4 0 5 1 20 0 21 14 0 1 14 0 13
split_gain=2437.76 293.169 109.177 75.3893 54.4125 23.3818 12.1973 10.8084 10.1969 9.0622 6.95577 6.61923 6.40025 4.15966 3.56907 3.45742 2.67098 4.32409 2.29969
threshold=1.0000000180025095e-35 2.5000000000000004 2.3138091993505712 1.5000000000000002 1.0000000180025095e-35 0.43924689440993797 1.5000000000000002 -6.7509520149999993 0.089572192513368995 3.5000000000000004 1.5000000000000002 -3.1987533599999995 1.0000000180025095e-35 0.34164133738601826 -2.5780505349999996 1.5000000000000002 0.27092233009708744 -5.2383204899999987 1.0000000180025095e-35
decision_type=2 2 2 2 2 2 2 2 2 2 2 2 2 2 2 2 2 2 2
left_child=1 2 3 -1 12 6 -5 8 -8 18 -10 16 13 -2 -13 -15 -9 -18 -7
right_child=4 -3 -4 5 -6 9 7 11 10 -11 -12 14 -14 15 -16 -17 17 -19 -20
leaf_value=-0.017300538419421977 -0.0004025645432335841 0.013215640701286968 0.013113611946899242 -0.01759579731443385 0.015066120103172745 -0.00013986357751338615 -0.013758929025376286 -0.01580265126270548 0.001594904555832061 -0.011494667063166293 -0.008455259470617895 -0.0052348625011741003 0.01027458671072346 0.008226134993371428 -0.012342080893666989 0.0018785782636167778 -0.015508014958876173 -0.0079013297032291142 -0.0047591645308231465
leaf_count=1739 61 175 60 130 2459 88 52 168 60 59 51 62 102 96 52 56 63 57 85
internal_value=0 -1.26774 -1.42501 -1.4838 1.40156 -1.02301 -1.20656 -1.07946 -0.644924 -0.472489 -0.302361 -1.25573 0.607138 0.407171 -0.847729 0.587344 -1.41735 -1.18934 -0.241128
internal_count=5675 2901 2726 2666 2774 927 695 565 163 232 111 402 315 213 114 152 288 120 173
shrinkage=0.01


Tree=20
num_leaves=20
num_cat=0
split_feature=12 23 12 23 23 9 23 1 15 17 3 7 27 27 27 16 5 7 27
split_gain=1542.49 316.033 209.426 351.449 363.009 84.5054 50.3363 15.3734 9.67125 6.29542 6.20987 6.13597 9.97375 14.9526 6.76057 5.56573 5.26629 5.17816 3.27859
threshold=1.0000000180025095e-35 0.62425255016073589 2.5000000000000004 0.74427525854407317 0.81798299140073738 1.0000000180025095e-35 1.4885505170881463 3.5000000000000004 60.500000000000007 1.5000000000000002 3.5000000000000004 1.0660752125667095 5.0122248015819837 6.1439121548662259 5.5614077969128628 1.2110323886639678 0.27334993773349942 0.81074915083818211 4.4618562396360213
decision_type=2 2 2 2 2 2 2 2 2 2 2 2 2 2 2 2 2 2 2
left_child=1 8 3 -2 7 -6 -7 11 15 -8 -9 12 -5 14 -14 -1 -13 -15 -17
right_child=2 -3 -4 4 5 6 9 10 -10 -11 -12 16 13 17 -16 18 -18 -19 -20
leaf_value=0.0023948602342457001 0.014644144718361202 -0.016793757375252068 0.01541774411605064 -0.015443900762482435 0.015413313211099806 0.012757014806232656 -0.0028434124393161846 -0.016093777152661377 -0.0025519146509283743 -0.011962656812728706 -0.0084239874311843807 -0.0075375064648347334 -0.0077242802073793299 -0.0077881178799169438 0.0020844951481627928 0.0059200395775586799 -8.0978039919149132e-05 -0.015643737806370989 0.011422575846808787
leaf_count=74 951 1790 1187 98 439 77 52 195 51 74 54 148 53 58 60 80 51 80 103
internal_value=0 -1.36061 0.826764 0.482092 -0.141871 1.02325 -0.0518852 -1.03039 0.54796 -0.820433 -1.44293 -0.843072 -1.00304 -0.791546 -0.251842 0.709934 -0.562709 -1.23383 0.901164
internal_count=5675 2098 3577 2390 1439 642 203 797 308 126 249 548 349 251 113 257 199 138 183
shrinkage=0.01


Tree=21
num_leaves=20
num_cat=0
split_feature=23 23 14 26 23 15 1 14 7 6 23 23 26 15 15 2 23 23 6
split_gain=859.822 1692.41 28.5501 60.203 62.0882 22.5644 19.1886 9.50847 5.37511 9.58251 5.08028 31.2907 32.0506 4.47621 7.84121 4.68846 3.93363 6.14765 3.65638
threshold=0.81798299140073738 0.74427525854407317 0.30801282051282058 1.0000000180025095e-35 1.6355747554813596 69.500000000000014 1.5000000000000002 0.43924689440993797 0.4738612204776988 1.2866021663636487 1.4885505170881463 1.6355747554813596 1.0000000180025095e-35 39.500000000000007 19.500000000000004 5.0585324727946626 0.38200054884613094 0.62425255016073589 5.3001343781235972
decision_type=2 2 2 2 2 2 2 2 2 2 2 2 2 2 2 2 2 2 2
left_child=1 5 3 -2 -5 16 7 8 9 -3 -4 12 -12 14 -9 -16 -1 -18 -10
right_child=2 6 10 4 -6 -7 -8 13 18 -11 11 -13 -14 -15 15 -17 17 -19 -20
leaf_value=0.015154389099051861 0.014588747586992959 -0.0035156820122527201 0.015621621632221208 -0.010158098380117907 0.014724959203304879 0.00076448379509838908 -0.016738517593026806 -0.015022598811217812 -0.016044221548964829 -0.014666253785828309 0.014126762458627188 0.015179821766851771 -0.0057803466698266642 -0.013471459185308154 -0.0093183214829306114 -0.0023781289342580084 0.011674621940858568 0.015257935981257202 -0.01346914502117017
leaf_count=323 251 50 550 111 68 64 1180 56 443 81 69 547 65 115 90 69 826 274 443
internal_value=0 -0.506512 1.25229 0.796141 -0.0998089 1.25927 -1.48694 -1.32362 -1.41956 -1.0409 1.41345 1.29441 0.416382 -1.02819 -0.857544 -0.63053 1.31393 1.25541 -1.47562
internal_count=5675 4014 1661 430 179 1487 2527 1347 1017 131 1231 681 134 330 215 159 1423 1100 886
shrinkage=0.01


Tree=22
num_leaves=20
num_cat=0
split_feature=8 18 10 18 4 0 15 14 4 27 16 16 14 10 15 16 27 20 27
split_gain=2361.32 189.424 49.8296 32.1248 26.0026 23.245 22.0251 17.6829 14.2682 9.88154 8.4559 7.29454 4.96144 4.66655 4.36166 3.37973 2.58071 2.41924 3.34226
threshold=1.0000000180025095e-35 1.5000000000000002 1.8083649081900324 1.5000000000000002 1.5000000000000002 -8.3867548949999975 67.500000000000014 0.29953271028037387 2.5000000000000004 5.1889909411404611 1.2485955056179778 1.186577554998608 0.23188946975354746 1.8139423076923078 32.500000000000007 1.2986486486486488 6.3238549913586306 1.5000000000000002 5.0122248015819837
decision_type=2 2 2 2 2 2 2 2 2 2 2 2 2 2 2 2 2 2 2
left_child=1 2 4 -2 -1 9 12 16 -4 10 -6 -10 -5 -3 15 -9 17 18 -7
right_child=3 13 8 6 5 7 -8 14 11 -11 -12 -13 -14 -15 -16 -17 -18 -19 -20
leaf_value=-0.015842104774084601 0.01490505109469142 -0.016908449061564051 -0.0070659217252992765 0.0050321005077594242 -0.0024610743761380883 -0.012506603360708213 -0.0034815757995897514 -0.0052541159239212756 -0.00029580490218877853 -0.005987176344401597 0.0085547500286857255 0.0082309050997899369 0.011466275344516193 -0.013209684249517175 -0.0071194329971293255 0.0018262133307570367 -0.015412376038213034 -0.01339350957201522 -0.0059703751277200481
leaf_count=148 2295 1616 50 58 55 62 51 56 65 81 59 115 379 151 148 53 71 98 64
internal_value=0 -1.24983 -0.603082 1.3865 -0.815541 -0.6629 0.909258 -0.872818 0.242755 -0.0640227 0.321071 0.512748 1.06051 -1.65935 -0.487601 -0.182442 -1.2081 -1.10227 -0.918583
internal_count=5675 2892 1125 2783 895 747 488 552 230 195 114 180 437 1767 257 109 295 224 126
shrinkage=0.01


Tree=23
num_leaves=20
num_cat=0
split_feature=11 12 12 14 1 0 6 2 1 1 0 3 5 1 14 14 5 2 6
split_gain=2150.32 192.23 44.8433 34.0244 14.8542 14.0401 15.6711 11.1758 10.0928 9.04247 6.64676 6.20302 6.04806 5.81554 6.80815 5.1003 4.88711 5.76434 3.7334
threshold=1.0000000180025095e-35 1.5000000000000002 1.0000000180025095e-35 0.43095238095238103 3.5000000000000004 -6.6368551899999995 6.3036298158340553 3.4159409757679442 2.5000000000000004 1.5000000000000002 -3.0110384199999998 1.5000000000000002 0.098387096774193564 2.5000000000000004 0.38278388278388281 0.24764150943396229 0.10154639175257733 2.6982544400897024 6.2551537402860182
decision_type=2 2 2 2 2 2 2 2 2 2 2 2 2 2 2 2 2 2 2
left_child=1 13 7 5 16 8 9 -2 15 10 12 -11 -7 14 -1 -3 -5 18 -18
right_child=2 3 -4 4 -6 6 -8 -9 -10 11 -12 -13 -14 -15 -16 -17 17 -19 -20
leaf_value=-0.015736629860774537 -0.00031650239232915655 -0.0046443135295712035 0.014660743958273477 -0.0025163216687874869 -0.0079299256625561376 -0.0020233139797514324 -0.014419662957241636 0.008671121042591547 -0.009664471601256901 -0.015426399879343546 -9.0591774065994869e-05 -0.0073011944447167387 -0.010053126923531211 -0.016786836323866947 -0.01213044814046832 0.0017093717392815905 0.011167532347417441 0.00034867835203583933 0.003548480543242661
leaf_count=629 85 100 2371 65 73 61 167 179 84 68 84 86 102 892 318 106 50 99 56
internal_value=0 -1.15423 1.37378 -0.526594 0.0108476 -0.740633 -0.924406 0.576709 -0.379466 -0.708433 -0.469316 -1.09073 -0.706624 -1.56208 -1.45251 -0.138435 0.230198 0.383449 0.712775
internal_count=5675 3040 2635 1201 343 858 568 264 290 401 247 154 163 1839 947 206 270 205 106
shrinkage=0.01


Tree=24
num_leaves=20
num_cat=0
split_feature=11 12 12 28 1 14 0 15 28 10 15 0 0 28 14 14 4 5 14
split_gain=2179.62 192.175 43.7624 37.2182 32.4882 23.9677 12.4913 12.2739 11.7056 11.3555 9.36604 8.30167 5.71793 5.69175 5.3891 4.9872 5.29127 4.19304 3.8545
threshold=1.0000000180025095e-35 1.5000000000000002 1.0000000180025095e-35 1.1144772458010526 3.5000000000000004 0.28840676586840275 -6.6797511749999989 47.500000000000007 1.0288420409715813 1.2240143369175629 44.500000000000007 -8.3867548949999975 -3.0110384199999998 1.1028761998407941 0.33035113205541583 0.38278388278388281 2.5000000000000004 0.20851449275362322 0.43924689440993797
decision_type=2 2 2 2 2 2 2 2 2 2 2 2 2 2 2 2 2 2 2
left_child=1 15 7 4 5 11 14 -2 12 -6 -11 -3 18 17 -5 -1 -17 -10 -7
right_child=2 3 -4 6 9 8 -8 -9 13 10 -12 -13 -14 -15 -16 16 -18 -19 -20
leaf_value=-0.016353313259332088 0.0090538526151266816 0.0014036434281885048 0.014776460366617962 -0.011003376625675066 -0.014163404157938242 -0.0051516328061531318 -0.015533274212695531 -0.00047434570698025113 0.0052143019086203215 -0.00075452033316376953 -0.012060839436258833 -0.007684525362507205 0.0039196657337014799 0.00073933542671741643 -0.0021499507829957597 -0.016124634826138594 -0.012169343925843453 0.013126905452794348 0.00083954468702238149
leaf_count=1265 166 51 2430 57 116 106 154 85 61 73 50 205 76 53 54 262 286 51 74
internal_value=0 -1.15506 1.3903 -0.521944 -0.328508 -0.101931 -1.18366 0.579113 0.195429 -0.965795 -0.538701 -0.587531 -0.0733902 0.618417 -0.669907 -1.56586 -1.40567 0.879743 -0.268602
internal_count=5675 2994 2681 1181 916 677 265 251 421 239 123 256 256 165 111 1813 548 112 180
shrinkage=0.01


Tree=25
num_leaves=20
num_cat=0
split_feature=25 1 26 28 4 0 2 6 0 17 2 7 0 28 26 0 2 7 6
split_gain=657.292 223.306 114.578 41.3882 46.5618 26.1314 23.1318 16.0136 16.4881 14.7956 11.7746 11.2361 16.5224 17.3455 11.2103 10.2324 9.68513 7.59743 11.6989
threshold=1.0000000180025095e-35 3.5000000000000004 1.5000000000000002 1.1127610042037082 5.5000000000000009 -6.7697261099999997 2.6173924712966143 6.8243833026979006 -3.4459654549999996 3.5000000000000004 1.7155828822071764 1.4053017959734482 -3.0110384199999998 0.96580645301444135 1.0000000180025095e-35 -10.205108969999998 5.9483131757454037 1.5621669700061491 6.0308517402356063
decision_type=10 2 2 2 2 2 2 2 2 2 2 2 2 2 2 2 2 2 2
left_child=1 2 3 4 6 -5 7 8 10 -8 -1 12 -11 16 -3 -13 -14 18 -17
right_child=-2 14 -4 5 -6 -7 9 -9 -10 11 -12 15 13 -15 -16 17 -18 -19 -20
leaf_value=0.0018778163158609841 0.014976190698675926 -0.010081860915851813 0.014808727641578562 -0.001724088438263679 0.0087179978905749782 -0.012437531635764967 0.00090459598393422078 0.010976411279314509 0.0085793740118655076 -0.0061640062505872988 -0.0067173193991917138 -0.0051461712926600626 0.0068648200856234179 -0.011199869263097625 -0.0010184585709317299 0.0029257335008689906 -0.0014106337105951167 0.0084857217152346405 -0.0079977951733969724
leaf_count=185 1058 1414 209 176 227 198 504 88 97 662 103 124 99 50 59 161 148 59 54
internal_value=0 -0.323306 -0.0138528 -0.115667 -0.0220999 -0.743207 -0.107015 0.298756 0.120296 -0.208777 -0.123163 -0.319174 -0.438144 -0.0380846 -0.972311 -0.030506 0.186415 0.190851 0.0145655
internal_count=5675 4617 3144 2935 2561 374 2334 473 385 1861 288 1357 959 297 1473 398 247 274 215
shrinkage=0.01


Tree=26
num_leaves=20
num_cat=0
split_feature=8 12 23 12 12 14 17 15 2 1 28 14 16 28 2 2 28 2 1
split_gain=2217.24 270.24 102.513 57.1544 55.0644 21.2894 23.2515 20.8908 9.48427 11.2587 12.5754 7.42413 5.77755 4.5602 8.08957 4.02794 5.80104 2.55658 2.20947
threshold=1.0000000180025095e-35 2.5000000000000004 2.3138091993505712 1.5000000000000002 1.0000000180025095e-35 0.43924689440993797 2.5000000000000004 60.500000000000007 5.2131834853845502 3.5000000000000004 0.90740809955303647 0.34384236453201977 1.2214052287581703 1.1028761998407941 1.7226274241839625 5.2971777433477536 1.0664169915882946 1.299796683810954 1.5000000000000002
decision_type=2 2 2 2 2 2 2 2 2 2 2 2 2 2 2 2 2 2 2
left_child=1 2 3 18 7 8 -7 11 17 10 -10 -2 -12 -6 -15 16 -8 -5 -1
right_child=4 -3 -4 5 13 6 15 -9 9 -11 12 -13 -14 14 -16 -17 -18 -19 -20
leaf_value=-0.01561150428697337 0.0035822938528291093 0.013193656070158398 0.011675813944478333 -0.01040579339501206 0.014948475977707106 0.0056219255609692874 -0.015472333175490068 -0.0054076379471244074 -0.01369463877208704 -0.014574910341598824 -0.0086770119984786662 0.010639858783537227 -0.00034999842134581178 0.0061435556563343317 0.014368394003276897 -0.0046828483347539007 -0.0065528550487519042 -0.015083439702537218 -0.017038257845330976
leaf_count=848 97 172 67 56 2171 61 57 57 72 118 53 173 90 73 180 65 60 291 914
internal_value=0 -1.21401 -1.36217 -1.42175 1.3526 -1.01841 -0.509685 0.568838 -1.2005 -0.95921 -0.686998 0.808658 -0.343731 1.46375 1.19884 -0.867773 -1.08982 -1.43275 -1.63499
internal_count=5675 2924 2752 2685 2751 923 243 327 680 333 215 270 143 2424 253 182 117 347 1762
shrinkage=0.01


Tree=27
num_leaves=20
num_cat=0
split_feature=22 23 23 9 14 15 1 14 15 14 4 20 14 4 14 23 23 20 6
split_gain=1149.86 573.355 688.332 87.6698 36.7857 23.2477 17.7275 11.6433 7.48628 5.58467 5.03327 3.60226 3.56898 3.55064 3.54635 3.32839 13.5763 4.18603 2.36373
threshold=1.5000000000000002 1.0759317591125723 0.74427525854407317 1.0000000180025095e-35 0.45131365113759486 69.500000000000014 3.5000000000000004 0.29004765395894433 19.500000000000004 0.60172413793103463 3.5000000000000004 1.5000000000000002 0.29953271028037387 1.5000000000000002 0.50599400599400612 1.4885505170881463 1.6355747554813596 1.5000000000000002 2.5576463536319687
decision_type=2 2 2 2 2 2 2 2 2 2 2 2 2 2 2 2 2 2 2
left_child=13 2 5 15 12 14 7 11 -9 10 -10 -4 -5 -1 18 -3 17 -17 -2
right_child=1 3 6 4 -6 -7 -8 8 9 -11 -12 -13 -14 -15 -16 16 -18 -19 -20
leaf_value=0.010475629799817634 0.012696936513517876 0.01515782003879758 -0.013036745063420689 -0.01403814997245844 0.0077036339218320548 -0.0020655479837721575 -0.016246679783701284 -0.016001991086664172 -0.011520915216653618 -0.0043811766424579415 -0.0055535149501243723 -0.015928537824017406 -0.0066799696141724733 0.014783102066476254 0.013667502070532045 0.010976974084029168 0.01463045967421113 0.0036261017879768006 0.0090235991010220677
leaf_count=87 112 230 306 54 83 58 1073 107 515 59 64 404 54 1609 205 57 287 79 232
internal_value=0 -0.586457 -0.976791 0.941072 -0.266661 1.01573 -1.42784 -1.28362 -1.10845 -1.02609 -1.08608 -1.46803 -1.03809 1.45581 1.15026 1.31198 1.2029 0.667814 1.02164
internal_count=5675 3979 3135 844 191 607 2528 1455 745 638 579 710 108 1696 549 653 423 136 344
shrinkage=0.01


Tree=28
num_leaves=20
num_cat=0
split_feature=22 23 23 9 1 2 27 27 0 0 23 23 2 1 13 1 0 13 27
split_gain=1099.61 542.297 649.249 72.7869 18.0169 13.9443 6.83029 7.63962 7.64069 9.14756 4.89001 13.0046 7.63742 3.98828 4.91493 3.77378 3.71166 4.02912 2.95484
threshold=1.5000000000000002 1.0759317591125723 0.74427525854407317 1.0000000180025095e-35 3.5000000000000004 1.7687042595496727 1.1199153120586176 5.4728129975251099 -4.8684265599999987 -2.4860405549999993 1.4885505170881463 1.6355747554813596 3.4564876180932544 3.5000000000000004 1.0000000180025095e-35 3.5000000000000004 -6.4217858249999988 1.0000000180025095e-35 5.8306806837537239
decision_type=2 2 2 2 2 2 2 2 2 2 2 2 2 2 2 2 2 2 2
left_child=15 2 13 10 6 -5 -4 -8 16 -10 -3 12 -12 -2 -15 -1 17 -9 -6
right_child=1 3 4 5 18 -7 7 8 9 -11 11 -13 -14 14 -16 -17 -18 -19 -20
leaf_value=0.014580032465660725 0.010747263880605745 0.01507890180685479 -0.0072259660978173466 -0.0077150890883949568 -0.016525589720260962 0.0036899825928776576 -0.014192091281204538 -0.0071654679225747388 -0.0057926644192414743 -0.012915523763307195 0.00041474437419882328 0.013893445342422973 0.010167318180104848 0.0024928604052252565 0.0098185161273571693 0.011204361215223292 -0.015638056071185485 -0.013652500845277806 -0.014166252924725835
leaf_count=1551 452 229 95 91 783 87 729 61 170 127 57 284 85 63 101 158 149 105 298
internal_value=0 -0.569883 -0.947927 0.929941 -1.39035 -0.218072 -1.24309 -1.28002 -1.1146 -0.883701 1.25923 1.1278 0.619853 0.973142 0.698578 1.42619 -1.33286 -1.12666 -1.5874
internal_count=5675 3966 3133 833 2517 178 1436 1341 612 297 655 426 142 616 164 1709 315 166 1081
shrinkage=0.01


Tree=29
num_leaves=20
num_cat=0
split_feature=8 11 18 18 14 15 2 1 1 28 11 15 15 14 2 0 28 2 15
split_gain=2068.81 319.588 71.5732 39.0738 25.0315 22.3536 12.1572 12.0246 11.9803 10.5527 8.85989 8.0258 6.95513 6.26927 6.01627 3.98765 3.5041 6.29706 2.54647
threshold=1.0000000180025095e-35 1.5000000000000002 1.5000000000000002 1.5000000000000002 0.43095238095238103 67.500000000000014 5.2131834853845502 1.5000000000000002 3.5000000000000004 0.90740809955303647 3.5000000000000004 26.500000000000004 33.500000000000007 0.29953271028037387 1.299796683810954 -6.6797511749999989 1.1028761998407941 1.7226274241839625 34.500000000000007
decision_type=2 2 2 2 2 2 2 2 2 2 2 2 2 2 2 2 2 2 2
left_child=1 2 4 16 6 10 14 12 9 -8 13 -11 -6 -5 -1 -16 -2 -18 -15
right_child=3 -3 -4 5 7 -7 8 -9 -10 11 -12 -13 -14 18 15 -17 17 -19 -20
leaf_value=-0.0078848860560726351 0.014657397129049565 0.012379016300861474 -0.015955132749420543 0.0021708507393292786 0.0036425637215991838 -0.0047380808458563324 -0.011833067154516484 -0.010817196344415587 -0.013629680098842143 0.0037681513216809037 0.014406373161803217 -0.005926396614955514 -0.0043619441004292825 0.01096382145690703 -0.010244496933039171 -0.015870596345749718 0.006656621738124595 0.014120613644219413 0.0064528216454455348
leaf_count=63 2035 224 1758 69 78 52 74 67 113 52 115 100 99 138 64 244 69 175 86
internal_value=0 -1.16836 -1.35295 1.32214 -0.911377 0.775026 -1.10214 -0.357516 -0.827977 -0.562454 0.940935 -0.260891 -0.0839535 0.754762 -1.35377 -1.46959 1.437 1.19977 0.922809
internal_count=5675 2936 2712 2739 954 460 710 244 339 226 408 152 177 293 371 308 2279 244 224
shrinkage=0.01


Tree=30
num_leaves=20
num_cat=0
split_feature=11 1 15 10 15 28 27 28 5 2 6 0 3 10 10 16 27 2 28
split_gain=1942.98 55.9147 26.0886 18.9231 14.2324 13.4239 17.7844 16.1291 11.9956 13.1673 10.1089 7.64886 6.47681 7.37074 6.37409 5.99322 5.90508 5.33969 4.95791
threshold=1.0000000180025095e-35 3.5000000000000004 70.500000000000014 1.8139423076923078 18.500000000000004 1.1268441954480362 5.4941108174634383 1.1127610042037082 0.11035007610350077 2.6766641763020078 5.2639538742023353 -6.8749452899999985 3.5000000000000004 1.4342857142857144 1.1291666666666669 1.2801997759522032 5.8974627823629193 6.218981128003592 0.93468371352145752
decision_type=2 2 2 2 2 2 2 2 2 2 2 2 2 2 2 2 2 2 2
left_child=1 3 -2 4 -1 6 10 8 -8 -10 -6 -9 -3 -14 17 -16 -5 -12 -11
right_child=2 12 -4 16 5 -7 7 11 9 18 14 -13 13 -15 15 -17 -18 -19 -20
leaf_value=-0.015553600387168711 0.013644211055005056 -0.015101916628661805 0.0014481955893481701 -0.0060511897977018449 -0.012274543739954237 -0.018070599854297674 -0.0069246297490907251 -0.0050004760602830505 0.0092051916040960576 0.0013630152397804574 -0.0078391338861387768 -0.014173138840780908 -0.013904232112741317 -0.0059282772921488806 -0.010366636308288695 -0.0020112799139819599 0.00043096650787083476 -0.015423113528196919 -0.006218702198259889
leaf_count=144 2618 954 77 140 480 62 205 56 50 62 112 108 139 72 52 107 98 57 82
internal_value=0 -1.09313 1.32813 -0.871575 -0.95157 -0.89058 -0.848853 -0.572795 -0.352172 0.0102564 -1.04073 -1.10381 -1.43923 -1.11854 -0.7674 -0.476338 -0.339507 -1.03982 -0.296868
internal_count=5675 2980 2695 1815 1577 1433 1371 563 399 194 808 164 1165 211 328 159 238 169 144
shrinkage=0.01


Tree=31
num_leaves=20
num_cat=0
split_feature=12 22 12 22 12 28 1 6 27 10 7 1 6 28 27 28 27 1 7
split_gain=1233.87 312.141 201.086 101.597 75.2208 47.9249 29.9599 12.8463 10.5964 9.41247 9.22093 6.4715 5.91608 5.1253 10.745 4.9651 4.42483 4.39176 4.06638
threshold=1.0000000180025095e-35 1.5000000000000002 2.5000000000000004 1.5000000000000002 1.5000000000000002 1.1144772458010526 3.5000000000000004 4.2984889044867858 5.5614077969128628 1.4083333333333334 1.0852408843508974 1.5000000000000002 4.8827283285053023 1.1028761998407941 5.7096764006216167 0.97888649645134207 6.3618272572983035 1.5000000000000002 0.45598482959252079
decision_type=2 2 2 2 2 2 2 2 2 2 2 2 2 2 2 2 2 2 2
left_child=3 -2 4 15 -3 6 7 8 -6 12 -7 18 -8 14 -9 -1 -10 -12 -5
right_child=1 2 -4 11 5 10 9 13 16 -11 17 -13 -14 -15 -16 -17 -18 -19 -20
leaf_value=0.0033513378467864238 0.014675223292398809 0.01382769225128419 0.01416607138133644 -0.0087600495554368812 -0.0044184939346727358 -0.01373971959817275 -0.011943319395238008 0.0026759313268951189 0.0049123048174654904 -0.0012770081522559785 -0.0029065829948359424 -0.014373811641359778 -0.0040317845607642441 -0.001165718114500795 0.011191673950490939 0.012463537387054389 -0.0014593123737495395 -0.010721824122921261 -0.012565865700959957
leaf_count=50 1593 134 486 133 227 147 121 272 105 88 69 987 58 78 83 50 80 51 863
internal_value=0 0.760368 0.226683 -1.22123 -0.131838 -0.268946 -0.0805746 0.108995 -0.147704 -0.673402 -1.03491 -1.32089 -0.940433 0.356742 0.462087 0.790498 0.215422 -0.620107 -1.20583
internal_count=5675 3592 1999 2083 1513 1379 1112 845 412 267 267 1983 179 433 355 100 185 120 996
shrinkage=0.01


Tree=32
num_leaves=20
num_cat=0
split_feature=8 23 26 23 1 23 25 5 5 7 0 1 16 17 7 7 17 2 2
split_gain=1957.52 215.903 74.2433 56.7626 22.1551 15.3087 8.9578 6.52382 6.19753 6.21273 6.57098 4.95379 3.63812 3.62582 3.24728 3.82021 2.94105 2.82632 4.20718
threshold=1.0000000180025095e-35 1.4885505170881463 1.0000000180025095e-35 2.3138091993505712 1.5000000000000002 0.62425255016073589 1.8333333333333337 0.21606265356265361 0.087548969511156552 1.3880843453212164 -3.5050680599999997 3.5000000000000004 1.2986486486486488 3.5000000000000004 0.85002374788298163 1.4472803806094623 2.5000000000000004 5.3511933218978678 5.8410500744049214
decision_type=2 2 2 2 2 2 8 2 2 2 2 2 2 2 2 2 2 2 2
left_child=1 4 -3 7 8 6 -2 -4 -1 10 -10 14 -13 -12 -8 16 -16 -11 -19
right_child=5 2 3 -5 -6 -7 11 -9 9 17 13 12 -14 -15 15 -17 -18 18 -20
leaf_value=-0.013565550995747433 0.014414753718504104 0.013314791144345693 -0.014867191807810631 0.011176923295797348 -0.015403449523288979 0.014506229915248994 0.012867672209763557 -0.0062887196921073904 -0.012953714376836201 -0.010797510580483925 -0.0049838833006607616 0.0037350256979193164 0.0094479988518382952 -0.010615402958461371 0.0050363800650518398 0.012381952799682053 0.0099832793456587441 -0.0025730164290796269 -0.0093058481146506018
leaf_count=435 321 176 91 69 1165 1568 288 59 463 83 72 70 146 129 82 163 144 70 81
internal_value=0 -1.12035 0.301418 -0.475642 -1.33573 1.31075 1.13553 -1.14946 -1.15889 -1.06343 -1.163 1.02994 0.758673 -0.859646 1.11853 0.994312 0.819075 -0.781707 -0.617745
internal_count=5675 2893 395 219 2498 2782 1214 150 1333 898 664 893 216 201 677 389 226 234 151
shrinkage=0.01


Tree=33
num_leaves=20
num_cat=0
split_feature=11 22 12 12 15 28 10 12 15 27 3 27 28 27 28 28 22 28 12
split_gain=1898.33 388.756 61.3251 36.3481 24.4913 11.6345 10.8235 10.1374 5.1522 4.22721 3.59818 6.65012 4.48891 6.0309 4.13818 3.19908 2.9708 3.77663 4.23706
threshold=1.0000000180025095e-35 1.5000000000000002 1.5000000000000002 1.0000000180025095e-35 64.500000000000014 1.1250806019766244 2.1065126050420173 1.5000000000000002 68.500000000000014 3.0812959596289935 2.5000000000000004 2.3530746164129996 0.95217287095146441 5.4941108174634383 0.99109828730868943 1.1127610042037082 1.5000000000000002 1.1006087972952794 2.5000000000000004
decision_type=2 2 2 2 2 2 2 2 2 2 2 2 2 2 2 2 2 2 2
left_child=1 7 -3 4 9 6 8 -1 10 -2 11 -4 13 -12 -14 -16 -5 -18 -19
right_child=3 2 5 16 -6 -7 -8 -9 -10 -11 12 -13 14 -15 15 -17 17 18 -20
leaf_value=0.0046713869012206298 0.003788817427886631 -0.015552646319350959 -0.0044492580712260626 0.014585732907415301 -0.0068730640441640812 -0.016449313366878434 0.00060567664225668456 0.013709797176096959 -0.015146602597825652 0.010606924154484736 -0.0075838105854575157 -0.01120516657185479 -0.013979715587330578 0.0011747317767479273 -0.0047232582317111461 -0.010241638535984157 0.01369782741893822 0.0080196660669169424 0.014094665934189255
leaf_count=67 51 1778 72 1323 50 81 50 230 52 158 83 314 50 51 87 83 885 122 88
internal_value=0 -1.09802 -1.3339 1.30662 0.577367 -0.914891 -0.845161 1.1589 -0.902442 0.89318 -0.859552 -0.993774 -0.713357 -0.424251 -0.890261 -0.740574 1.39019 1.309 1.05502
internal_count=5675 2998 2701 2677 259 923 842 297 792 209 740 386 354 134 220 170 2418 1095 210
shrinkage=0.01


Tree=34
num_leaves=20
num_cat=0
split_feature=8 11 18 18 14 23 17 27 14 14 27 10 13 10 27 27 3 14 20
split_gain=1959.52 295.534 54.2714 32.1778 20.0714 18.9153 17.9605 6.22793 6.39909 4.6144 5.24573 4.96584 8.00319 4.39862 4.05778 3.36381 2.92662 2.79513 2.62504
threshold=1.0000000180025095e-35 1.5000000000000002 1.5000000000000002 1.5000000000000002 0.43095238095238103 0.62425255016073589 2.5000000000000004 4.225988875004119 0.49822695035461001 0.29004765395894433 6.0595867598404647 1.6324561403508773 1.0000000180025095e-35 1.4248120300751881 5.2770422234917502 3.2249504214017519 2.5000000000000004 0.44281045751633991 1.5000000000000002
decision_type=2 2 2 2 2 2 2 2 2 2 2 2 2 2 2 2 2 2 2
left_child=1 2 4 -2 9 7 -6 8 -5 10 14 12 -11 -9 15 -1 -8 -4 -12
right_child=3 -3 17 5 6 -7 16 13 -10 11 18 -13 -14 -15 -16 -17 -18 -19 -20
leaf_value=-0.0086343074909131946 0.014046565402088568 0.012282724956925355 -0.015749438027988415 -0.0024013037401594711 0.004445160823873218 0.013949117183591051 -0.0099652994664590697 0.0096395133938927905 0.0068445392260231856 -0.0010013655462205538 -0.012198359506635699 -0.013121431232229197 -0.0099944701244264519 0.0027671922949938366 -0.0062412635507769392 -0.01423363004551898 -0.0047665796055909194 -0.013703217195521587 -0.016937082832605959
leaf_count=72 2277 218 1400 70 67 168 102 133 57 58 85 82 128 56 68 109 76 341 108
internal_value=0 -1.14398 -1.32004 1.29658 -0.936204 0.812334 -0.441519 0.522914 0.172861 -1.10795 -1.23451 -0.90005 -0.718467 0.760291 -1.04205 -1.19968 -0.774463 -1.53469 -1.48455
internal_count=5675 2914 2696 2761 955 484 245 316 127 710 442 268 186 189 249 181 178 1741 193
shrinkage=0.01


Tree=35
num_leaves=20
num_cat=0
split_feature=8 23 9 18 18 18 23 4 7 10 0 28 3 0 0 7 10 4 28
split_gain=1942.97 176.548 64.9114 62.5207 34.439 29.9888 15.5982 10.9103 9.18926 6.98501 6.57859 7.47377 7.2339 5.62064 5.29229 6.95703 5.67198 5.46198 3.38422
threshold=1.0000000180025095e-35 1.4885505170881463 1.0000000180025095e-35 1.5000000000000002 1.5000000000000002 1.5000000000000002 0.62425255016073589 1.5000000000000002 1.0660752125667095 1.6238207547169814 -5.748075909999999 1.0618911253949967 2.5000000000000004 -3.4459654549999996 -4.4826658699999991 1.5717874443343594 1.2752525252525253 2.5000000000000004 1.1028761998407941
decision_type=2 2 2 2 2 2 2 2 2 2 2 2 2 2 2 2 2 2 2
left_child=1 3 4 7 -3 18 14 -1 10 -4 -9 12 -12 -14 15 16 -7 -16 -2
right_child=5 2 9 -5 -6 6 -8 8 -10 -11 11 -13 13 -15 17 -17 -18 -19 -20
leaf_value=-0.013808165235435805 0.014273461654981404 0.012808397820143664 -0.014160261127520597 -0.015536499319882107 -0.0057778670859411378 -0.0030544092442021005 0.013577164908836058 -0.014593263077341892 -0.004384692640321021 -0.0049612079507351794 -0.012464833360940165 -0.0011427639516131481 -0.010823080214821947 -0.0030028176265771067 0.0043734261812244006 0.0096965158858400829 0.0051397170507170133 0.013195354181010787 0.011687926469501991
leaf_count=142 2045 189 63 1698 55 68 169 80 228 72 154 52 64 88 55 57 74 65 257
internal_value=0 -1.13913 0.180556 -1.33049 0.843156 1.29418 0.827881 -0.871633 -0.764378 -0.925961 -0.935243 -0.819295 -0.938878 -0.6286 0.566827 0.362491 0.120424 0.909649 1.39817
internal_count=5675 2885 379 2506 244 2790 488 808 666 135 438 358 306 152 319 199 142 120 2302
shrinkage=0.01


Tree=36
num_leaves=20
num_cat=0
split_feature=8 11 12 12 4 10 5 20 16 16 16 16 16 5 17 5 10 4 10
split_gain=1877.21 285.745 55.1436 50.9943 13.1827 5.56805 5.85807 4.58281 4.18967 2.59967 2.44532 3.47397 2.40997 4.62614 2.39045 2.31631 2.17005 2.08612 2.30869
threshold=1.0000000180025095e-35 1.5000000000000002 1.0000000180025095e-35 1.5000000000000002 1.5000000000000002 2.092236396252741 0.3101673101673102 1.5000000000000002 1.2110323886639678 1.1421356421356423 1.1992907801418442 1.1246118012422361 1.214835164835165 0.11035007610350077 3.5000000000000004 0.12250000000000001 1.2240143369175629 2.5000000000000004 1.8139423076923078
decision_type=2 2 2 2 2 2 2 2 2 2 2 2 2 2 2 2 2 2 2
left_child=1 3 8 17 -5 6 7 9 15 -6 11 -9 -11 -14 -10 -2 -4 -1 -19
right_child=2 -3 16 4 5 -7 -8 10 14 12 -12 -13 13 -15 -16 -17 -18 18 -20
leaf_value=-0.015719109153658414 -0.0016604425663050552 0.012497254541780373 0.012689386099929392 -0.014354584177401026 -0.0044004944722901475 -0.0020895316805887875 -0.0033013292757927233 -0.0099689552625317601 0.010325400276625849 -0.011960285768748025 -0.0095390260974345716 -0.016722109380752467 -0.010295825552920227 -0.0039988911104427835 0.0053318023043843477 0.0044874024186955025 0.014210608206462656 -0.014671332255445424 -0.011134187007501264
leaf_count=916 50 212 552 169 79 57 75 65 53 64 190 59 104 86 179 53 1875 753 84
internal_value=0 -1.12656 1.2699 -1.29728 -0.922774 -0.812926 -0.860749 -0.922553 0.49229 -0.75832 -1.09696 -1.31725 -0.857447 -0.744162 0.646031 0.14878 1.38617 -1.50448 -1.43135
internal_count=5675 2913 2762 2701 948 779 722 647 335 333 314 124 254 190 232 103 2427 1753 837
shrinkage=0.01


Tree=37
num_leaves=20
num_cat=0
split_feature=12 22 12 22 12 28 28 1 6 0 0 27 0 28 5 10 28 5 10
split_gain=1122.58 295.984 202.612 84.7503 65.7445 52.3049 27.5312 20.1951 12.9171 8.72135 8.69049 7.12615 6.72898 5.13755 5.35548 5.08926 4.40061 4.35344 9.87226
threshold=1.0000000180025095e-35 1.5000000000000002 2.5000000000000004 1.5000000000000002 1.5000000000000002 1.1123374991936801 1.034862260609122 3.5000000000000004 5.6745887700874151 -3.1987533599999995 -6.4217858249999988 5.6861645716436291 -2.8018959549999995 1.1028761998407941 0.1924501424501425 1.4083333333333334 0.9826256886235929 0.19890109890109894 1.1889880952380956
decision_type=2 2 2 2 2 2 2 2 2 2 2 2 2 2 2 2 2 2 2
left_child=3 -2 4 16 -3 6 7 8 9 -6 -7 -8 -5 14 -13 -9 -1 18 -11
right_child=1 2 -4 12 5 10 11 15 -10 17 -12 13 -14 -15 -16 -17 -18 -19 -20
leaf_value=0.0021383291008948294 0.014205215794391893 0.013297973785777054 0.014106113247130264 -0.013273206035723413 -0.0042534820891539718 -0.0063388196689505103 -0.00059169954495756616 -0.010427874463262004 0.0060238948655900182 -0.0020763008955679589 -0.013356118681784336 0.0050800180711326505 -0.009697827494774389 0.0020050144933169865 0.012978598788779805 -0.0036820388702510395 0.010624500336797512 -0.0023808683574744068 0.01049697529978187
leaf_count=53 1584 125 486 1733 304 126 83 139 98 53 171 81 251 73 69 70 50 73 53
internal_value=0 0.715986 0.196594 -1.18892 -0.161851 -0.284462 -0.0753088 -0.275245 -0.0780124 -0.215178 -1.03734 0.454409 -1.28211 0.649207 0.870919 -0.817809 0.626431 0.14508 0.412797
internal_count=5675 3588 2004 2087 1518 1393 1096 790 581 483 297 306 1984 223 150 209 103 179 106
shrinkage=0.01


Tree=38
num_leaves=20
num_cat=0
split_feature=18 25 14 25 14 1 27 10 1 14 7 27 9 10 14 14 7 14 14
split_gain=885.697 164.257 97.3628 64.4798 48.7741 29.9566 26.6234 17.5569 15.6463 13.5131 11.0969 11.0894 8.67778 7.72312 7.56885 7.51207 9.68388 6.15455 4.91666
threshold=1.5000000000000002 1.0000000180025095e-35 0.30801282051282058 0.18333333333333338 0.34384236453201977 3.5000000000000004 6.1041083670207481 1.4083333333333334 3.5000000000000004 0.43924689440993797 1.3641305834676583 5.5967559743394952 1.0000000180025095e-35 1.2649122807017545 0.53693957115009761 0.28613199665831252 1.7421704536237874 0.26393188854489169 0.71714285714285719
decision_type=2 10 2 10 2 2 2 2 2 2 2 2 2 2 2 2 2 2 2
left_child=1 2 6 4 17 9 7 10 14 -4 11 -1 15 -7 -6 16 -8 -2 -11
right_child=3 -3 5 -5 8 13 12 -9 -10 18 -12 -13 -14 -15 -16 -17 -18 -19 -20
leaf_value=-0.0040692280386143602 -0.013927573701120681 0.014200573703669306 0.0056097121429986001 0.010943670784203871 -0.0063363678895171595 -0.0045346544019971039 -0.0087460686194762455 0.0081890837164300661 -0.010237293743432296 0.0096048915473044283 0.0050931510336171193 0.0052241389714149438 -0.012461375650810741 0.0032305138934894768 -0.0011031331440959371 0.0018292836123917431 0.001635071680034908 -0.010708555909510697 0.014642446104345135
leaf_count=285 966 1002 430 64 349 79 153 131 341 718 114 68 67 178 176 67 51 336 100
internal_value=0 0.674911 0.390491 -1.00211 -1.06009 0.724513 -0.129156 0.134213 -0.68192 0.860912 -0.0494228 -0.229803 -0.589734 0.0813037 -0.459024 -0.424163 -0.618225 -1.30994 1.02084
internal_count=5675 3443 2441 2232 2168 1505 936 598 866 1248 467 353 338 257 525 271 204 1302 818
shrinkage=0.01


Tree=39
num_leaves=20
num_cat=0
split_feature=8 23 18 18 23 6 23 4 7 5 6 16 2 17 2 27 27 16 6
split_gain=1793.25 185.018 51.1498 34.093 31.5218 21.5666 20.2271 13.3978 10.3069 7.4148 6.21206 5.84305 5.71318 4.17185 4.07802 4.03591 11.2103 14.1356 4.34051
threshold=1.0000000180025095e-35 1.4885505170881463 1.5000000000000002 1.5000000000000002 2.3138091993505712 6.7421479207648973 0.62425255016073589 1.5000000000000002 1.0150037862491637 0.29705882352941182 4.3168681258121646 1.2124358974358975 3.585795847062923 2.5000000000000004 4.6593632226861592 6.2582200410226223 5.5614077969128628 1.1978281905171488 3.7750086991572247
decision_type=2 2 2 2 2 2 2 2 2 2 2 2 2 2 2 2 2 2 2
left_child=1 2 7 -2 5 13 11 -1 -7 15 -11 -5 -13 -3 -15 16 18 -18 -9
right_child=3 4 -4 6 -6 8 -8 9 -10 10 -12 12 -14 14 -16 -17 17 -19 -20
leaf_value=-0.014250310264646768 0.013796527581463727 0.008348080317026503 -0.014910379304462245 0.00047286218274467128 0.01194129221575338 -0.014048069258238306 0.013695426836378356 -0.012166233809177938 -0.0015543297369986393 -0.0081022116429138695 0.001410490122352559 0.0019185076309991534 0.0088370530961760039 -0.0029618826632152946 0.0052050893370408037 -0.011442306088667673 -0.011327859506027421 0.0020789494858900045 -0.0071696592487584948
leaf_count=149 2297 55 1674 94 116 57 175 149 53 50 62 75 153 50 55 141 50 87 133
internal_value=0 -1.08514 -1.28408 1.26611 0.257659 -0.118979 0.773973 -0.874368 -0.809195 -0.754188 -0.282797 0.477037 0.655177 0.371263 0.129763 -0.848842 -0.750114 -0.279285 -0.979663
internal_count=5675 2881 2495 2794 386 270 497 821 110 672 112 322 228 160 105 560 419 137 282
shrinkage=0.01


Tree=40
num_leaves=20
num_cat=0
split_feature=8 11 12 12 1 15 3 7 7 7 7 7 15 15 15 7 7 15 7
split_gain=1802.5 275.358 52.1357 50.9663 10.1982 8.63418 6.87017 6.59005 4.69745 8.17644 4.63734 3.57761 2.91353 2.4549 2.09262 2.99133 2.24266 1.75598 1.90513
threshold=1.0000000180025095e-35 1.5000000000000002 1.5000000000000002 1.0000000180025095e-35 1.5000000000000002 64.500000000000014 3.5000000000000004 0.84856385834658499 0.56769489552276486 1.0660752125667095 0.41074873774003501 1.0044644954472006 39.500000000000007 47.500000000000007 38.500000000000007 0.45598482959252079 1.2285175177866894 39.500000000000007 0.80458831080392568
decision_type=2 2 2 2 2 2 2 2 2 2 2 2 2 2 2 2 2 2 2
left_child=1 2 14 5 8 7 -6 -2 10 11 -4 17 -9 -11 15 -1 -17 18 -10
right_child=3 -3 4 -5 6 -7 -8 12 9 13 -12 -13 -14 -15 -16 16 -18 -19 -20
leaf_value=-0.011357149454482714 0.010135433506143687 0.012116937875407756 -0.0086905510264140735 0.013672672540574103 -0.013694570939819397 -0.0027696597180939392 -0.0063930120228057451 0.005663946402145582 -0.0059316694489075774 -0.004633448060910453 -0.0010593087772454897 -0.014849603045729003 -0.00025920558727496681 -0.0096377440273873981 -0.015619514337440131 -0.015486992638927798 -0.013295528707404873 -0.011989556459377621 -0.010908978357821874
leaf_count=132 116 217 54 2420 232 50 68 103 73 186 79 68 53 50 814 521 312 72 55
internal_value=0 -1.10874 -1.2775 1.25516 -0.89484 0.492323 -1.2031 0.639304 -0.75145 -0.840395 -0.416071 -1.08271 0.36464 -0.569284 -1.48536 -1.42104 -1.46645 -0.947382 -0.805449
internal_count=5675 2933 2716 2742 937 322 300 272 637 504 133 268 156 236 1779 965 833 200 128
shrinkage=0.01


Tree=41
num_leaves=20
num_cat=0
split_feature=8 23 23 15 6 1 7 23 5 5 10 7 8 5 7 6 4 20 10
split_gain=1729.14 185.488 31.0811 20.8154 19.2631 18.715 11.998 8.11923 6.56873 5.40589 5.12119 6.77117 4.74899 4.68566 4.66653 4.33668 4.33303 4.78416 7.36439
threshold=1.0000000180025095e-35 1.4885505170881463 2.3138091993505712 67.500000000000014 6.7421479207648973 1.5000000000000002 1.0150037862491637 0.62425255016073589 0.087548969511156552 0.1639077340569878 2.0699186991869927 0.45598482959252079 1.5000000000000002 0.16196343402225757 0.85002374788298163 1.2047755751091593 2.5000000000000004 1.5000000000000002 1.3603896103896107
decision_type=2 2 2 2 2 2 2 2 2 2 2 2 2 2 2 2 2 2 2
left_child=1 5 4 7 9 8 -6 12 -1 -3 11 15 -2 -5 -14 -10 -13 18 -18
right_child=3 2 -4 13 6 -7 -8 -9 10 -11 -12 16 14 -15 -16 -17 17 -19 -20
leaf_value=-0.01305067652688424 0.013842141421276882 -0.00092822330830821267 0.011447238582801871 0.00016071839112069674 -0.01394084708003137 -0.014572561957882936 -0.00046875854671145351 0.01398995092771415 -0.0015078675321585269 0.0068578693143158953 -0.0041364694151772765 -0.014531120186975659 0.012663441002837204 0.008471025204408995 0.0094188295814471145 -0.0097581822139506495 -0.0059402722515449757 -0.011957081660729164 -0.013218124084048275
leaf_count=450 321 67 127 63 59 1165 52 1509 52 90 56 128 336 56 480 52 174 353 85
internal_value=0 -1.06597 0.266351 1.25249 -0.123136 -1.26609 -0.770053 1.29327 -1.10423 0.349956 -1.00438 -1.044 1.15879 0.399484 1.07497 -0.56165 -1.11248 -1.04162 -0.832705
internal_count=5675 2910 395 2765 268 2515 111 2646 1350 157 900 844 1137 119 816 104 740 612 259
shrinkage=0.01


Tree=42
num_leaves=20
num_cat=0
split_feature=11 23 18 14 18 23 1 18 1 14 14 7 23 7 7 6 27 27 6
split_gain=1632.57 295.982 68.1646 25.2943 22.4933 15.2862 11.3146 7.85847 6.77882 6.54235 7.22235 5.30236 4.48957 3.94244 4.99621 7.48569 3.71275 6.07005 2.89534
threshold=1.0000000180025095e-35 0.74427525854407317 1.5000000000000002 0.43924689440993797 1.5000000000000002 0.62425255016073589 1.5000000000000002 1.5000000000000002 2.5000000000000004 0.29953271028037387 0.32537249590076284 1.3880843453212164 0.81798299140073738 0.51673267938165168 1.5521220875316584 5.3912828001871711 4.480323710431481 6.1041083670207481 3.7868176114665597
decision_type=2 2 2 2 2 2 2 2 2 2 2 2 2 2 2 2 2 2 2
left_child=1 7 3 8 -2 13 12 -1 9 11 -11 16 -5 -6 15 18 -3 -18 -15
right_child=4 2 -4 6 5 -7 -8 -9 -10 10 -12 -13 -14 14 -16 -17 17 -19 -20
leaf_value=0.013255300071044657 0.013416336346016411 -0.016362197102982607 -0.014472702124695263 -0.0018430439632219394 0.010095398068041044 0.013069078078726195 -0.0093608608568770367 0.0047232415635872502 -0.012867620838658058 -0.00016923138277828804 -0.0084051089518483064 -0.0048792123632176495 0.0049466921118639685 0.0018639678021731935 0.0094635354812087243 -0.0045611516418188822 -0.0059932457136981547 -0.013469712587417963 0.0086823629188794403
leaf_count=204 2245 54 1771 134 54 183 70 59 205 66 126 57 58 56 50 50 76 107 50
internal_value=0 -1.01234 -1.20679 -0.773037 1.25089 0.820837 -0.239076 1.12246 -0.976276 -0.846951 -0.557765 -1.03677 0.0135458 0.507701 0.379086 0.197937 -1.17104 -1.03298 0.508504
internal_count=5675 2987 2724 953 2688 443 262 263 691 486 192 294 192 260 206 156 237 183 106
shrinkage=0.01


Tree=43
num_leaves=20
num_cat=0
split_feature=12 23 12 23 12 26 14 9 15 4 15 14 14 10 6 10 3 10 4
split_gain=1022.23 243.066 177.456 268.305 270.019 53.0312 34.3767 17.269 8.58546 7.37253 5.55537 5.48447 5.00838 8.10715 6.48128 3.26832 4.46456 2.6961 2.73822
threshold=1.0000000180025095e-35 0.74427525854407317 2.5000000000000004 0.74427525854407317 1.5000000000000002 1.5000000000000002 0.43095238095238103 1.0000000180025095e-35 62.500000000000007 1.5000000000000002 32.500000000000007 0.51087470449172578 0.29004765395894433 1.6238207547169814 4.5512112196417638 1.3670033670033672 2.5000000000000004 1.8139423076923078 2.5000000000000004
decision_type=2 2 2 2 2 2 2 2 2 2 2 2 2 2 2 2 2 2 2
left_child=1 8 3 -2 -5 6 9 10 11 -6 -8 15 -11 14 -14 16 -1 -3 -19
right_child=2 17 -4 4 5 -7 7 -9 -10 12 -12 -13 13 -15 -16 -17 -18 18 -20
leaf_value=0.0026701544608811545 0.012818899659162927 -0.014707132096470519 0.013815876380829897 0.013916939653925368 -0.014828633992942151 0.012565857823938873 -0.00071720192795817481 0.006725874689720357 -0.0025478155161122811 -0.010849203183535728 -0.0074658892041760076 0.010811693252791547 -0.0087973471971550393 -0.012348295891810621 -0.00068160296345891682 0.00020003880622377962 0.010356537146262872 -0.01547344674388065 -0.0096476088035681359
leaf_count=68 943 1599 1211 397 121 62 81 75 51 354 125 88 75 80 86 53 61 54 91
internal_value=0 -1.14407 0.6936 0.369892 -0.173044 -0.681105 -0.787845 -0.187478 0.503967 -1.02347 -0.480626 0.653586 -0.93151 -0.707001 -0.446798 0.450539 0.627776 -1.44622 -1.17936
internal_count=5675 2065 3610 2399 1456 1059 997 281 321 716 206 270 595 241 161 182 129 1744 145
shrinkage=0.01


Tree=44
num_leaves=20
num_cat=0
split_feature=8 12 12 12 4 14 15 2 17 14 15 2 14 5 15 4 15 15 7
split_gain=1664.65 220.604 72.3631 48.8688 24.2132 17.7126 14.2497 10.0057 7.3234 15.0217 5.62857 7.71869 5.17204 4.99546 4.06508 3.08026 2.46191 2.17061 2.64319
threshold=1.0000000180025095e-35 2.5000000000000004 1.0000000180025095e-35 1.0000000180025095e-35 2.5000000000000004 0.29953271028037387 62.500000000000007 5.5541552820882041 2.5000000000000004 0.43924689440993797 34.500000000000007 5.2423019717457366 0.34384236453201977 0.19890109890109894 34.500000000000007 1.5000000000000002 22.500000000000004 38.500000000000007 0.45598482959252079
decision_type=2 2 2 2 2 2 2 2 2 2 2 2 2 2 2 2 2 2 2
left_child=1 2 17 6 15 7 12 -6 9 -7 11 -10 -2 -12 16 -4 -14 18 -1
right_child=3 -3 4 -5 5 8 -8 -9 10 -11 13 -13 14 -15 -16 -17 -18 -19 -20
leaf_value=-0.011126470119876272 0.0027974067080333538 0.012207014765970596 -0.01386366648754599 0.013485737431622711 -0.012294255396749448 -0.005266381976739256 -0.0049398437292492046 -0.0037871373891068339 -0.0064829124738437684 0.0076739724882645072 -0.0040108719409602577 0.0043646437894395576 0.0079587521633579482 -0.012155412349437294 0.004825473695779312 -0.010014157251988606 0.014234786354054179 -0.015232734411707621 -0.014221234556627693
leaf_count=136 90 186 164 2466 164 75 51 86 55 73 71 52 50 54 66 180 59 796 801
internal_value=0 -1.04718 -1.18895 1.23998 -0.749539 -0.514216 0.481656 -0.933217 -0.239276 0.114548 -0.462225 -0.122392 0.678136 -0.753048 0.887949 -1.18342 1.13535 -1.44397 -1.37699
internal_count=5675 2893 2707 2782 974 630 316 250 380 148 232 107 265 125 175 344 109 1733 937
shrinkage=0.01


Tree=45
num_leaves=20
num_cat=0
split_feature=11 23 18 18 4 23 2 0 28 27 27 18 2 27 2 0 2 28 2
split_gain=1585.78 264.031 71.1837 19.0781 17.9259 14.6546 13.4872 11.3424 10.1968 18.0992 13.5672 6.46102 4.42745 4.38473 4.00112 3.58637 2.97649 2.86505 5.27922
threshold=1.0000000180025095e-35 0.74427525854407317 1.5000000000000002 1.5000000000000002 2.5000000000000004 0.62425255016073589 3.4159409757679442 -6.5241219499999996 1.1160483318979926 5.4336837472412842 6.3481040324864351 1.5000000000000002 3.2856594581424425 4.7423525891206424 5.7731542629538941 -3.2728965549999995 2.5926133929933948 1.1028761998407941 1.7226274241839625
decision_type=2 2 2 2 2 2 2 2 2 2 2 2 2 2 2 2 2 2 2
left_child=1 11 4 17 15 6 -5 12 9 -9 16 -1 -6 14 -14 -3 -11 -2 -19
right_child=3 2 -4 5 7 -7 -8 8 -10 10 -12 -13 13 -15 -16 -17 -18 18 -20
leaf_value=0.012694758934729768 0.013625921203783481 -0.012119331205046895 -0.014277527350748173 -0.0019768698305182028 0.0035331254344749085 0.012987551547811964 0.0085051196540616228 -0.011058460714122966 -0.013069621352478623 0.0068617033377793048 -0.0085825957008350707 0.0049793180942952946 0.0030151071060333409 -0.007455712323956574 -0.0045562396615148066 -0.0068091686238194197 5.6476270311990882e-05 0.0067245185954431155 0.013314027827099135
leaf_count=193 1991 283 1743 76 50 198 167 137 101 51 63 61 55 65 58 64 55 83 181
internal_value=0 -0.993425 -1.17463 1.25004 -0.741108 0.850411 0.519382 -0.539629 -0.743223 -0.560522 -0.116632 1.07162 -0.180501 -0.328277 -0.0892362 -1.11317 0.327192 1.3339 1.12167
internal_count=5675 2979 2725 2696 982 441 243 635 407 306 169 254 228 178 113 347 106 2255 264
shrinkage=0.01


Tree=46
num_leaves=20
num_cat=0
split_feature=8 11 12 12 14 1 21 2 1 2 20 2 14 3 2 3 14 2 2
split_gain=1611.07 266.465 51.7785 44.2036 22.4296 10.6436 8.49492 8.13463 9.74677 7.69707 10.0593 5.34429 5.35284 4.50237 3.46056 3.29211 2.55838 8.06547 2.47329
threshold=1.0000000180025095e-35 1.5000000000000002 1.5000000000000002 1.0000000180025095e-35 0.43924689440993797 3.5000000000000004 1.0000000180025095e-35 5.2131834853845502 3.5000000000000004 6.7733573052932012 1.5000000000000002 3.8246928200793273 0.45407685098406753 2.5000000000000004 1.2871560460608253 1.5000000000000002 0.45407685098406753 6.1906845797567431 1.7240800599925599
decision_type=2 2 2 2 2 2 2 2 2 2 2 2 2 2 2 2 2 2 2
left_child=1 2 16 6 7 13 11 14 9 10 -9 -2 -13 -6 -4 -10 -1 -18 -5
right_child=3 -3 4 18 5 -7 -8 8 15 -11 -12 12 -14 -15 -16 -17 17 -19 -20
leaf_value=-0.014586939215519385 -0.0017715423068505188 0.011932380962165715 -0.0075114863546163479 0.011755935396124895 -0.0037367121840612212 -0.010493919753009326 0.0098295105540804062 0.001560449163701662 -0.016077883161418755 -0.011124474648947407 -0.0088199994832275919 0.0021040897780595898 0.010313258622324763 0.0025255392753065608 -0.013128762441059672 -0.0090439788377520512 -0.014042774987105756 -0.0052303407679484279 0.013635062286131436
leaf_count=1438 71 232 53 402 95 60 113 86 60 68 67 92 54 90 305 51 254 53 2031
internal_value=0 -1.03467 -1.20878 1.22475 -0.827556 -0.305885 0.521008 -1.01572 -0.788827 -0.546615 -0.297648 0.283473 0.510399 -0.0695467 -1.22921 -1.28311 -1.42195 -1.25157 1.33235
internal_count=5675 2912 2680 2763 935 245 330 690 332 221 153 217 146 185 358 111 1745 307 2433
shrinkage=0.01


Tree=47
num_leaves=20
num_cat=0
split_feature=8 11 12 12 14 15 1 14 2 1 5 15 2 0 15 21 2 15 0
split_gain=1580.99 253.931 61.1388 55.4077 17.7558 14.4117 9.49716 8.06499 7.92819 7.30718 8.11781 10.4611 6.12106 4.81054 4.57857 4.34777 2.89749 2.30371 2.70199
threshold=1.0000000180025095e-35 1.5000000000000002 1.5000000000000002 1.0000000180025095e-35 0.43095238095238103 64.500000000000014 3.5000000000000004 0.29953271028037387 5.2131834853845502 3.5000000000000004 0.089572192513368995 28.500000000000004 1.3336021253597423 -6.6797511749999989 33.500000000000007 1.0000000180025095e-35 3.2856594581424425 40.500000000000007 -2.8018959549999995
decision_type=2 2 2 2 2 2 2 2 2 2 2 2 2 2 2 2 2 2 2
left_child=1 2 17 5 8 7 14 -2 12 10 -10 -12 -4 -14 -6 -9 -16 18 -1
right_child=3 -3 4 -5 6 -7 -8 15 9 -11 11 -13 13 -15 16 -17 -18 -19 -20
leaf_value=-0.014047399045671087 -0.00033650496844751852 0.012132652082442621 -0.0073701380638424817 0.013311450886816551 0.002409320465114276 -0.0056450808678045342 -0.010149308073882471 0.0058911497702374095 -0.010697406557435349 -0.011488154602589781 0.0042638438421529166 -0.0067854642628448689 -0.0083782126858851398 -0.014992038973423265 -0.00029663477081281602 0.012136694404491839 -0.006884051290603134 -0.015169089031107195 -0.010835947024386446
leaf_count=897 63 220 97 2441 84 51 63 139 72 115 57 88 59 190 50 74 58 730 127
internal_value=0 -1.03112 -1.19653 1.21099 -0.781436 0.418874 -0.330195 0.610008 -0.9541 -0.731856 -0.51635 -0.242727 -1.17053 -1.33962 -0.110279 0.805186 -0.38337 -1.42774 -1.3646
internal_count=5675 2907 2687 2768 933 327 255 276 678 332 217 145 346 249 192 213 108 1754 1024
shrinkage=0.01


Tree=48
num_leaves=20
num_cat=0
split_feature=11 22 12 12 1 12 27 27 6 3 6 28 0 27 21 6 28 1 22
split_gain=1494.87 311.785 51.4497 39.7286 13.2731 10.5252 10.1077 15.6546 9.57451 8.38077 6.03699 5.92019 4.20604 3.54175 3.25502 3.14963 2.94611 2.10102 1.94
threshold=1.0000000180025095e-35 1.5000000000000002 1.5000000000000002 1.0000000180025095e-35 3.5000000000000004 1.5000000000000002 6.1439121548662259 5.4941108174634383 5.2063820232882962 3.5000000000000004 6.2551537402860182 0.93942041838127743 -6.797628024999999 4.4154349386208773 1.0000000180025095e-35 5.9212795826348268 1.0205224806382118 1.5000000000000002 1.5000000000000002
decision_type=2 2 2 2 2 2 2 2 2 2 2 2 2 2 2 2 2 2 2
left_child=1 5 17 11 6 -1 7 8 13 -6 -8 -2 -9 -4 16 -10 -13 -3 -5
right_child=3 2 4 18 9 -7 10 12 15 -11 -12 14 -14 -15 -16 -17 -18 -19 -20
leaf_value=0.003483671139405807 0.0092973776498741275 -0.01334131641762977 -0.013126320137353955 0.013682470925083052 -0.013969400833829174 0.012747491620627511 -0.0054197348734177355 -0.0038756272534658065 0.0005144893266439901 -0.0052770338478041927 -0.012300092553473163 0.0037329979510511715 0.0033667715736527188 -0.0075984689816701728 0.0066414288900158852 -0.0062747118651855921 -0.0026220142183555821 -0.014797721532740424 0.012434890171179507
leaf_count=67 80 824 90 1382 207 242 77 51 57 59 161 64 88 100 57 53 60 882 1074
internal_value=0 -0.969161 -1.19056 1.22065 -0.814146 1.0579 -0.665265 -0.485241 -0.745019 -1.202 -1.00329 0.457374 0.0707789 -1.02122 0.25142 -0.275741 0.0653122 -1.40879 1.3127
internal_count=5675 2958 2649 2717 943 309 677 439 300 266 238 261 139 190 181 110 124 1706 2456
shrinkage=0.01


Tree=49
num_leaves=20
num_cat=0
split_feature=11 22 12 12 14 17 12 27 27 21 3 7 20 28 7 12 20 3 27
split_gain=1483.31 308.029 50.9507 33.2157 17.6594 22.4757 8.49319 5.50404 5.51816 4.95191 6.16193 4.93397 3.39462 3.37614 4.06144 4.77269 3.13465 3.01059 2.85769
threshold=1.0000000180025095e-35 1.5000000000000002 1.5000000000000002 1.0000000180025095e-35 0.45131365113759486 2.5000000000000004 1.5000000000000002 6.1629812208391739 5.4941108174634383 1.0000000180025095e-35 2.5000000000000004 1.117186424707078 1.5000000000000002 1.1028761998407941 1.1206317565300841 2.5000000000000004 1.5000000000000002 2.5000000000000004 4.7036804475376082
decision_type=2 2 2 2 2 2 2 2 2 2 2 2 2 2 2 2 2 2 2
left_child=1 6 -3 9 7 -6 -1 8 11 10 -2 18 -10 -5 15 -15 -9 -7 -4
right_child=3 2 4 13 5 17 -8 16 12 -11 -12 -13 -14 14 -16 -17 -18 -19 -20
leaf_value=0.0043365360345729706 -0.0005934691643384207 -0.014003417550859628 -0.013743457946430311 0.013333532468189671 0.0074309110937746115 -0.0098144595076069176 0.012633565538931982 -0.0096434375031701821 -0.0015394946131882085 0.0092258066331769705 0.007205901409948816 -0.0067363660353654212 -0.0078545051979440044 0.0033573544956358942 0.012947399186756936 0.012441111940525164 -0.014214620027929368 -0.0040283151942327507 -0.0090091836110964846
leaf_count=68 88 1748 120 2135 60 80 237 118 64 89 85 137 76 59 166 51 133 67 94
internal_value=0 -0.971149 -1.18651 1.2171 -0.811792 -0.292999 1.06286 -0.95913 -0.835116 0.520791 0.318628 -0.97112 -0.496246 1.30326 1.07556 0.753389 -1.2058 -0.717515 -1.16524
internal_count=5675 3002 2697 2673 949 207 305 742 491 262 173 351 140 2411 276 110 251 147 214
shrinkage=0.01


Tree=50
num_leaves=20
num_cat=0
split_feature=11 12 12 1 15 10 27 27 16 15 27 15 3 20 15 16 1 16 27
split_gain=1459.25 136.59 32.0574 17.0898 13.7357 9.97394 9.42646 18.2069 5.23358 4.81566 5.31697 4.75223 4.6206 3.59947 3.45635 3.17242 2.99981 2.79076 2.58529
threshold=1.0000000180025095e-35 1.5000000000000002 1.0000000180025095e-35 2.5000000000000004 64.500000000000014 1.6640758738748691 6.1439121548662259 5.5210131438766847 1.4522727272727274 46.500000000000007 1.5108935017453893 40.500000000000007 2.5000000000000004 1.5000000000000002 41.500000000000007 1.214835164835165 2.5000000000000004 1.4188596491228072 6.313448409926548
decision_type=2 2 2 2 2 2 2 2 2 2 2 2 2 2 2 2 2 2 2
left_child=1 11 4 6 -2 12 7 9 -8 10 -3 16 -5 17 15 -9 -1 -12 -18
right_child=2 3 -4 5 -6 -7 8 14 -10 -11 13 -13 -14 -15 -16 -17 18 -19 -20
leaf_value=-0.01142500096947657 0.0077146909249389897 0.00350365757149278 0.012996049419470497 -0.012520093942029796 -0.0040552168281753828 -0.00052245879080914197 -0.0071360671789808608 0.0022760000279861575 -0.00022887055449957041 -0.0079358021497002336 0.0010639473942079028 -0.014469619835268618 -0.0066954458907982671 -0.0064480413221783967 -8.5105213672767636e-05 0.0087546736588557991 -0.014263821432124697 -0.004713035514341604 -0.0093505794592731797
leaf_count=654 211 51 2425 145 51 55 228 57 59 86 79 739 96 111 57 74 380 64 53
internal_value=0 -0.95991 1.21503 -0.412184 0.530145 -0.839111 -0.266834 -0.116867 -0.572777 -0.367673 -0.246599 -1.31769 -1.02032 -0.369084 0.40966 0.595465 -1.2305 -0.152718 -1.36588
internal_count=5675 2988 2687 1162 262 296 866 579 287 391 305 1826 241 254 188 131 1087 143 433
shrinkage=0.01


Tree=51
num_leaves=20
num_cat=0
split_feature=8 11 1 23 14 8 2 7 6 6 3 7 3 2 5 7 14 10 10
split_gain=1499.92 234.206 18.364 15.4893 15.1172 6.87121 5.66287 6.78222 4.57825 3.92237 3.76743 3.61929 5.09416 6.23116 3.54167 4.87989 3.08559 3.03035 3.44705
threshold=1.0000000180025095e-35 1.5000000000000002 1.5000000000000002 0.62425255016073589 0.43924689440993797 1.5000000000000002 1.2648579510539759 0.49322651859599509 1.2047755751091593 5.9768104988602753 3.5000000000000004 0.82836587673646966 4.5000000000000009 5.5865962719497082 0.089572192513368995 1.3880843453212164 0.35147058823529415 1.8793939393939396 1.3317152103559873
decision_type=2 2 2 2 2 2 2 2 2 2 2 2 2 2 2 2 2 2 2
left_child=1 2 4 5 6 -2 -1 8 -8 17 -4 -7 13 -13 -9 -16 -15 18 -6
right_child=3 -3 10 -5 9 11 7 14 -10 -11 -12 12 -14 16 15 -17 -18 -19 -20
leaf_value=-0.0047032744672112102 0.012880675572165315 0.011834547660132365 -0.014090540436191335 0.013418073630639951 -0.0037143314413546724 0.010835289533883154 -0.0034859724041107695 -0.014203539759017333 -0.010591414496892104 -0.0098903644968367909 -0.01109446722186962 0.010246409081353965 0.0026408482315033728 0.00058616936065104298 -0.012777764340114581 -0.0087968976266519106 0.0078044552004804925 -0.0020685949779308604 -0.0093331470847679201
leaf_count=51 325 217 1020 1550 84 345 62 304 97 107 220 346 70 50 395 193 57 83 99
internal_value=0 -1.01072 -1.1673 1.19211 -1.01391 1.00916 -1.136 -1.16865 -0.779952 -0.660633 -1.35546 0.912368 0.800456 0.883586 -1.23893 -1.14609 0.436998 -0.527953 -0.67515
internal_count=5675 2932 2715 2743 1475 1193 1102 1051 159 373 1240 868 523 453 892 588 107 266 183
shrinkage=0.01


Tree=52
num_leaves=20
num_cat=0
split_feature=8 11 12 12 4 15 27 27 6 15 27 6 27 27 6 0 3 0 15
split_gain=1469.67 255.374 46.0394 44.5666 13.477 7.50229 6.7253 17.4542 7.1207 7.17069 6.66024 5.60383 4.43933 3.67683 3.42099 3.03903 2.79094 2.37344 2.14263
threshold=1.0000000180025095e-35 1.5000000000000002 1.5000000000000002 1.0000000180025095e-35 1.5000000000000002 59.500000000000007 6.1439121548662259 5.9340694590349701 5.7041521796034571 36.500000000000007 5.0122248015819837 6.7421479207648973 3.1509300939652611 2.3864562254481747 2.6887495015727851 -6.1549449649999994 2.5000000000000004 -6.2419227299999989 40.500000000000007
decision_type=2 2 2 2 2 2 2 2 2 2 2 2 2 2 2 2 2 2 2
left_child=1 2 18 5 -4 12 7 8 10 -10 13 14 -2 -6 -8 -14 -15 -13 -1
right_child=3 -3 4 -5 6 -7 11 -9 9 -11 -12 17 15 16 -16 -17 -18 -19 -20
leaf_value=-0.013067709326597605 0.0018902349951397444 0.012701754568973425 -0.013307687878230013 0.012951957816112194 -0.0065394791329354465 -0.0018180476676345912 -0.00958290116681027 0.0036842610326755865 0.0019894572474152246 -0.0081030576444232755 -0.0049874117697547519 -0.0084051394436544004 0.011928588385700668 -0.014998028421488221 -0.0022943197490522343 0.0060799419327855356 -0.0091100194475025372 -0.013784864660670819 -0.014553753984671411
leaf_count=1047 73 222 169 2446 54 61 53 71 60 54 124 50 57 87 52 120 54 107 714
internal_value=0 -0.997425 -1.16401 1.18761 -0.803342 0.454643 -0.690575 -0.554905 -0.707903 -0.277878 -0.864132 -0.956112 0.617599 -1.09858 -0.59728 0.797458 -1.2732 -1.2035 -1.36669
internal_count=5675 2918 2696 2757 935 311 766 504 433 114 319 262 250 195 105 177 141 157 1761
shrinkage=0.01


Tree=53
num_leaves=20
num_cat=0
split_feature=8 4 15 4 2 2 5 27 27 27 2 2 2 20 5 8 27 5 21
split_gain=1464.57 45.9894 19.6944 12.5347 14.8365 9.22227 11.139 5.32445 7.78208 4.65085 4.27332 5.28945 4.53412 4.19818 4.12117 4.09399 3.77717 3.6474 2.74754
threshold=1.0000000180025095e-35 2.5000000000000004 70.500000000000014 5.5000000000000009 1.7240800599925599 1.2455055388582861 0.087548969511156552 2.192839522373172 5.1380495251868181 6.4890772648235666 2.5926133929933948 1.6470437238975697 5.2423019717457366 1.5000000000000002 0.28033088235294124 1.5000000000000002 2.9707944688714996 0.18933143669985777 1.0000000180025095e-35
decision_type=2 2 2 2 2 2 2 2 2 2 2 2 2 2 2 2 2 2 2
left_child=1 18 15 5 -5 -3 -7 13 16 10 11 -10 -12 -8 -14 -2 -9 -6 -1
right_child=2 3 -4 4 17 6 7 8 9 -11 12 -13 14 -15 -16 -17 -18 -19 -20
leaf_value=-0.013640256023976609 0.01327684875608133 -0.0010425348001074867 0.00082011321669950743 -0.0099544298474798752 -0.0012084276792828743 -0.011507072012453032 -0.00072222662635634848 -0.0069357487526652559 -0.0074346147533887888 -0.011156882114706031 -0.011938631083950033 0.00014965412206088041 -0.003368245745521279 -0.0069297518522533257 -0.01011183655388825 0.011486728667286599 -0.012204670814343002 0.006741660191927957 -0.011572050238930544
leaf_count=879 1042 70 70 66 51 425 80 80 69 80 68 92 113 115 58 1627 226 51 413
internal_value=0 -1.00169 1.18437 -0.772801 -0.230475 -0.833216 -0.869969 -0.74889 -0.824527 -0.661365 -0.570634 -0.309293 -0.744501 -0.441429 -0.565834 1.21632 -1.08409 0.275309 -1.29799
internal_count=5675 2936 2739 1644 168 1476 1406 981 786 480 400 161 239 195 171 2669 306 102 1292
shrinkage=0.01


Tree=54
num_leaves=20
num_cat=0
split_feature=11 23 18 18 15 4 10 18 23 7 0 23 10 15 7 27 0 27 0
split_gain=1359.08 255.804 55.7837 22.2265 17.6789 14.0978 12.5891 8.892 8.13018 5.42232 5.31183 4.10242 4.66895 3.6974 4.85808 3.53546 5.23948 6.89262 10.3166
threshold=1.0000000180025095e-35 0.74427525854407317 1.5000000000000002 1.5000000000000002 66.500000000000014 1.5000000000000002 2.111735330836455 1.5000000000000002 0.62425255016073589 1.7132904554463162 -4.9840764799999997 0.81798299140073738 1.6640758738748691 40.500000000000007 0.45598482959252079 1.5662059659996703 -4.9023614849999992 5.0122248015819837 -3.3874941599999997
decision_type=2 2 2 2 2 2 2 2 2 2 2 2 2 2 2 2 2 2 2
left_child=1 7 5 -2 8 -3 9 -1 10 11 -5 15 -13 14 -4 -7 -17 -18 -19
right_child=3 2 13 4 -6 6 -8 -9 -10 -11 -12 12 -14 -15 -16 16 17 18 -20
leaf_value=0.013214147762678475 0.01291441223012051 -0.01266297521926223 -0.0088951773080663751 0.0037941442601483067 -0.0038026436639768354 -0.003515733978325406 0.0037220663615552848 0.0042166352886346941 0.012785707433489226 -0.0017067390844245842 0.010728292213795683 -0.007358434883100117 0.00079663729395716731 -0.014469885244930689 -0.01307944061116338 -0.010985950255022912 -0.011774922107641549 0.0030068740268202592 -0.0074524218121870432
leaf_count=204 2223 168 139 125 50 62 51 62 179 78 80 70 52 721 901 220 84 51 155
internal_value=0 -0.920749 -1.10311 1.19717 0.757358 -0.720044 -0.611762 1.09235 0.921593 -0.676083 0.64615 -0.733545 -0.389607 -1.33103 -1.25143 -0.804693 -0.860861 -0.682538 -0.485345
internal_count=5675 3018 2752 2657 434 991 823 266 384 772 205 694 122 1761 1040 572 510 290 206
shrinkage=0.01


Tree=55
num_leaves=20
num_cat=0
split_feature=8 23 26 23 18 18 23 15 6 2 2 15 16 14 14 14 15 14 10
split_gain=1387.47 159.053 41.9159 42.0843 34.77 33.5577 19.0767 10.9293 7.83253 7.76024 7.78731 9.02006 5.4686 7.61805 5.05639 4.93683 2.83682 2.78475 4.40113
threshold=1.0000000180025095e-35 1.4885505170881463 1.0000000180025095e-35 2.3138091993505712 1.5000000000000002 1.5000000000000002 0.62425255016073589 64.500000000000014 6.7421479207648973 1.2455055388582861 5.2131834853845502 38.500000000000007 1.1469559851912796 0.26253132832080206 0.43095238095238103 0.29953271028037387 38.500000000000007 0.45407685098406753 1.5358974358974362
decision_type=2 2 2 2 2 2 2 2 2 2 2 2 2 2 2 2 2 2 2
left_child=1 4 -3 8 9 -2 7 15 -4 -1 14 12 -12 -14 -11 -7 17 -6 -19
right_child=5 2 3 -5 16 6 -8 -9 -10 10 11 -13 13 -15 -16 -17 -18 18 -20
leaf_value=-0.00041413064315249466 0.012783779261852405 0.011584823755818064 -0.0035044577438653108 0.011997572336947272 -0.013056318636778103 0.00068646448838320456 0.012792925009385999 -0.0044019883187059574 -0.013233631362515836 -0.012316161257007669 -0.0099645468144643166 -0.01039884284832699 -0.0065565877809242376 0.0017930638298665163 -0.0069663246032223318 0.007172813425782955 -0.01425648703159395 -0.0063760295796481039 -0.013482683836723675
leaf_count=50 2266 168 61 64 777 66 174 54 78 267 51 161 92 87 100 212 796 75 76
internal_value=0 -0.977984 0.327373 -0.288575 -1.16074 1.15627 0.666246 0.388096 -0.889846 -0.815774 -0.86721 -0.668813 -0.412898 -0.246197 -1.08205 0.559554 -1.33309 -1.2545 -0.996276
internal_count=5675 2903 371 203 2532 2772 506 332 139 808 758 391 230 179 367 278 1724 928 151
shrinkage=0.01


Tree=56
num_leaves=20
num_cat=0
split_feature=11 12 12 4 14 15 20 5 16 16 15 14 16 15 15 14 13 4 14
split_gain=1291.72 138.423 37.0902 24.3879 17.0936 12.44 6.00614 7.05714 5.31768 5.05584 4.94334 5.49608 5.10105 4.75106 4.74569 5.49592 5.09006 3.47548 3.25184
threshold=1.0000000180025095e-35 1.5000000000000002 1.0000000180025095e-35 2.5000000000000004 0.29953271028037387 64.500000000000014 1.5000000000000002 0.19890109890109894 1.186577554998608 1.2801997759522032 40.500000000000007 0.38653084323712511 1.2600644122383255 38.500000000000007 41.500000000000007 0.45407685098406753 1.0000000180025095e-35 1.5000000000000002 0.34164133738601826
decision_type=2 2 2 2 2 2 2 2 2 2 2 2 2 2 2 2 2 2 2
left_child=1 14 5 10 6 -2 7 -5 13 -10 11 12 -3 -6 15 -1 -17 -12 -11
right_child=2 3 -4 4 8 -7 -8 -9 9 18 17 -13 -14 -15 -16 16 -18 -19 -20
